network unknown {
}
variable colegio_bilingue {
    type discrete [ 2 ] { 0, 1 };
    property weight = None ;
}
variable colegio_calendario {
    type discrete [ 3 ] { 1, 2, 3 };
    property weight = None ;
}
variable colegio_genero {
    type discrete [ 3 ] { 1, 2, 3 };
    property weight = None ;
}
variable colegio_jornada {
    type discrete [ 6 ] { 1, 2, 3, 4, 5, 6 };
    property weight = None ;
}
variable colegio_mcpio_distinto {
    type discrete [ 2 ] { 0, 1 };
    property weight = None ;
}
variable colegio_privado {
    type discrete [ 2 ] { 0, 1 };
    property weight = None ;
}
variable colegio_rural {
    type discrete [ 2 ] { 0, 1 };
    property weight = None ;
}
variable computador {
    type discrete [ 2 ] { 0, 1 };
    property weight = None ;
}
variable estudiante_genero {
    type discrete [ 2 ] { 0, 1 };
    property weight = None ;
}
variable familia_estrato {
    type discrete [ 6 ] { 1, 2, 3, 4, 5, 6 };
    property weight = None ;
}
variable internet {
    type discrete [ 2 ] { 0, 1 };
    property weight = None ;
}
variable madre_educacion {
    type discrete [ 10 ] { 1, 2, 3, 4, 5, 6, 7, 8, 9, 10 };
    property weight = None ;
}
variable padre_educacion {
    type discrete [ 10 ] { 1, 2, 3, 4, 5, 6, 7, 8, 9, 10 };
    property weight = None ;
}
variable presentacion_mcpio_distinto {
    type discrete [ 2 ] { 0, 1 };
    property weight = None ;
}
variable puntaje {
    type discrete [ 10 ] { 1, 2, 3, 4, 5, 6, 7, 8, 9, 10 };
    property weight = None ;
}
probability ( colegio_bilingue | colegio_calendario, colegio_genero, colegio_jornada, familia_estrato ) {
    ( 1, 1, 1, 1 ) 0.9874691962968953, 0.012530803703104632;
    ( 1, 1, 1, 2 ) 0.9912243184590284, 0.008775681540971662;
    ( 1, 1, 1, 3 ) 0.9934913163447492, 0.006508683655250771;
    ( 1, 1, 1, 4 ) 0.9903474903474904, 0.009652509652509652;
    ( 1, 1, 1, 5 ) 0.9837662337662337, 0.016233766233766232;
    ( 1, 1, 1, 6 ) 0.9736434108527132, 0.02635658914728682;
    ( 1, 1, 2, 1 ) 0.9812439733832728, 0.0187560266167271;
    ( 1, 1, 2, 2 ) 0.989495292545811, 0.010504707454188926;
    ( 1, 1, 2, 3 ) 0.9913146451312316, 0.008685354868768442;
    ( 1, 1, 2, 4 ) 0.9853833240067151, 0.014616675993284835;
    ( 1, 1, 2, 5 ) 0.9756915339480302, 0.024308466051969825;
    ( 1, 1, 2, 6 ) 0.972047389855609, 0.027952610144390967;
    ( 1, 1, 3, 1 ) 0.9929970189144737, 0.007002981085526316;
    ( 1, 1, 3, 2 ) 0.9970896100327262, 0.0029103899672737266;
    ( 1, 1, 3, 3 ) 0.9987640685810455, 0.0012359314189544547;
    ( 1, 1, 3, 4 ) 0.9966130397967824, 0.003386960203217612;
    ( 1, 1, 3, 5 ) 0.9958728848534875, 0.004127115146512587;
    ( 1, 1, 3, 6 ) 0.9960513326752222, 0.003948667324777887;
    ( 1, 1, 4, 1 ) 0.9944493381439069, 0.005550661856093058;
    ( 1, 1, 4, 2 ) 0.9944974866898665, 0.005502513310133548;
    ( 1, 1, 4, 3 ) 0.9968489341983318, 0.003151065801668211;
    ( 1, 1, 4, 4 ) 0.9963476990504018, 0.003652300949598247;
    ( 1, 1, 4, 5 ) 0.9951456310679612, 0.0048543689320388345;
    ( 1, 1, 4, 6 ) 0.9932508436445444, 0.006749156355455568;
    ( 1, 1, 5, 1 ) 0.9760193128268171, 0.023980687173182965;
    ( 1, 1, 5, 2 ) 0.9920578323230697, 0.007942167676930331;
    ( 1, 1, 5, 3 ) 0.9850100893629288, 0.014989910637071202;
    ( 1, 1, 5, 4 ) 0.9714871030822236, 0.02851289691777633;
    ( 1, 1, 5, 5 ) 0.9590010759386148, 0.04099892406138513;
    ( 1, 1, 5, 6 ) 0.9707213578500707, 0.029278642149929278;
    ( 1, 1, 6, 1 ) 0.9831370960053389, 0.016862903994661074;
    ( 1, 1, 6, 2 ) 0.9942192691029901, 0.005780730897009967;
    ( 1, 1, 6, 3 ) 0.9963442498095963, 0.0036557501904036557;
    ( 1, 1, 6, 4 ) 0.9948484848484849, 0.005151515151515152;
    ( 1, 1, 6, 5 ) 0.9938325991189427, 0.006167400881057269;
    ( 1, 1, 6, 6 ) 0.9805555555555555, 0.019444444444444445;
    ( 1, 2, 1, 1 ) 1.0, 0.0;
    ( 1, 2, 1, 2 ) 1.0, 0.0;
    ( 1, 2, 1, 3 ) 1.0, 0.0;
    ( 1, 2, 1, 4 ) 1.0, 0.0;
    ( 1, 2, 1, 5 ) 1.0, 0.0;
    ( 1, 2, 1, 6 ) 1.0, 0.0;
    ( 1, 2, 2, 1 ) 1.0, 0.0;
    ( 1, 2, 2, 2 ) 1.0, 0.0;
    ( 1, 2, 2, 3 ) 1.0, 0.0;
    ( 1, 2, 2, 4 ) 1.0, 0.0;
    ( 1, 2, 2, 5 ) 1.0, 0.0;
    ( 1, 2, 2, 6 ) 1.0, 0.0;
    ( 1, 2, 3, 1 ) 1.0, 0.0;
    ( 1, 2, 3, 2 ) 1.0, 0.0;
    ( 1, 2, 3, 3 ) 1.0, 0.0;
    ( 1, 2, 3, 4 ) 1.0, 0.0;
    ( 1, 2, 3, 5 ) 0.5, 0.5;
    ( 1, 2, 3, 6 ) 1.0, 0.0;
    ( 1, 2, 4, 1 ) 1.0, 0.0;
    ( 1, 2, 4, 2 ) 1.0, 0.0;
    ( 1, 2, 4, 3 ) 1.0, 0.0;
    ( 1, 2, 4, 4 ) 1.0, 0.0;
    ( 1, 2, 4, 5 ) 1.0, 0.0;
    ( 1, 2, 4, 6 ) 1.0, 0.0;
    ( 1, 2, 5, 1 ) 1.0, 0.0;
    ( 1, 2, 5, 2 ) 0.9987409505823104, 0.0012590494176896443;
    ( 1, 2, 5, 3 ) 0.9970153303486636, 0.002984669651336318;
    ( 1, 2, 5, 4 ) 0.9872042491549976, 0.012795750845002415;
    ( 1, 2, 5, 5 ) 0.8652920962199313, 0.13470790378006872;
    ( 1, 2, 5, 6 ) 0.8993055555555556, 0.10069444444444445;
    ( 1, 2, 6, 1 ) 0.5, 0.5;
    ( 1, 2, 6, 2 ) 0.5, 0.5;
    ( 1, 2, 6, 3 ) 0.5, 0.5;
    ( 1, 2, 6, 4 ) 0.5, 0.5;
    ( 1, 2, 6, 5 ) 0.5, 0.5;
    ( 1, 2, 6, 6 ) 0.5, 0.5;
    ( 1, 3, 1, 1 ) 1.0, 0.0;
    ( 1, 3, 1, 2 ) 1.0, 0.0;
    ( 1, 3, 1, 3 ) 1.0, 0.0;
    ( 1, 3, 1, 4 ) 1.0, 0.0;
    ( 1, 3, 1, 5 ) 1.0, 0.0;
    ( 1, 3, 1, 6 ) 1.0, 0.0;
    ( 1, 3, 2, 1 ) 1.0, 0.0;
    ( 1, 3, 2, 2 ) 1.0, 0.0;
    ( 1, 3, 2, 3 ) 1.0, 0.0;
    ( 1, 3, 2, 4 ) 1.0, 0.0;
    ( 1, 3, 2, 5 ) 1.0, 0.0;
    ( 1, 3, 2, 6 ) 1.0, 0.0;
    ( 1, 3, 3, 1 ) 1.0, 0.0;
    ( 1, 3, 3, 2 ) 1.0, 0.0;
    ( 1, 3, 3, 3 ) 1.0, 0.0;
    ( 1, 3, 3, 4 ) 1.0, 0.0;
    ( 1, 3, 3, 5 ) 1.0, 0.0;
    ( 1, 3, 3, 6 ) 1.0, 0.0;
    ( 1, 3, 4, 1 ) 1.0, 0.0;
    ( 1, 3, 4, 2 ) 1.0, 0.0;
    ( 1, 3, 4, 3 ) 1.0, 0.0;
    ( 1, 3, 4, 4 ) 1.0, 0.0;
    ( 1, 3, 4, 5 ) 1.0, 0.0;
    ( 1, 3, 4, 6 ) 1.0, 0.0;
    ( 1, 3, 5, 1 ) 1.0, 0.0;
    ( 1, 3, 5, 2 ) 1.0, 0.0;
    ( 1, 3, 5, 3 ) 0.9997390907311983, 0.00026090926880177417;
    ( 1, 3, 5, 4 ) 0.9988977072310405, 0.0011022927689594356;
    ( 1, 3, 5, 5 ) 0.9885428907168038, 0.011457109283196239;
    ( 1, 3, 5, 6 ) 0.9654934437543133, 0.03450655624568668;
    ( 1, 3, 6, 1 ) 1.0, 0.0;
    ( 1, 3, 6, 2 ) 1.0, 0.0;
    ( 1, 3, 6, 3 ) 1.0, 0.0;
    ( 1, 3, 6, 4 ) 0.5, 0.5;
    ( 1, 3, 6, 5 ) 0.5, 0.5;
    ( 1, 3, 6, 6 ) 0.5, 0.5;
    ( 2, 1, 1, 1 ) 1.0, 0.0;
    ( 2, 1, 1, 2 ) 1.0, 0.0;
    ( 2, 1, 1, 3 ) 1.0, 0.0;
    ( 2, 1, 1, 4 ) 1.0, 0.0;
    ( 2, 1, 1, 5 ) 1.0, 0.0;
    ( 2, 1, 1, 6 ) 1.0, 0.0;
    ( 2, 1, 2, 1 ) 0.9970986460348162, 0.0029013539651837525;
    ( 2, 1, 2, 2 ) 0.9990130280300039, 0.0009869719699960521;
    ( 2, 1, 2, 3 ) 0.9980765531833045, 0.0019234468166955184;
    ( 2, 1, 2, 4 ) 0.9800349388570002, 0.01996506114299975;
    ( 2, 1, 2, 5 ) 0.9301524840137727, 0.06984751598622725;
    ( 2, 1, 2, 6 ) 0.6637806637806638, 0.3362193362193362;
    ( 2, 1, 3, 1 ) 1.0, 0.0;
    ( 2, 1, 3, 2 ) 1.0, 0.0;
    ( 2, 1, 3, 3 ) 1.0, 0.0;
    ( 2, 1, 3, 4 ) 1.0, 0.0;
    ( 2, 1, 3, 5 ) 1.0, 0.0;
    ( 2, 1, 3, 6 ) 1.0, 0.0;
    ( 2, 1, 4, 1 ) 1.0, 0.0;
    ( 2, 1, 4, 2 ) 1.0, 0.0;
    ( 2, 1, 4, 3 ) 1.0, 0.0;
    ( 2, 1, 4, 4 ) 1.0, 0.0;
    ( 2, 1, 4, 5 ) 1.0, 0.0;
    ( 2, 1, 4, 6 ) 1.0, 0.0;
    ( 2, 1, 5, 1 ) 0.8344519015659956, 0.16554809843400448;
    ( 2, 1, 5, 2 ) 0.8980233602875113, 0.10197663971248877;
    ( 2, 1, 5, 3 ) 0.8199546485260771, 0.1800453514739229;
    ( 2, 1, 5, 4 ) 0.5808668560432512, 0.41913314395674883;
    ( 2, 1, 5, 5 ) 0.4446116545439345, 0.5553883454560655;
    ( 2, 1, 5, 6 ) 0.227869703940046, 0.772130296059954;
    ( 2, 1, 6, 1 ) 1.0, 0.0;
    ( 2, 1, 6, 2 ) 1.0, 0.0;
    ( 2, 1, 6, 3 ) 1.0, 0.0;
    ( 2, 1, 6, 4 ) 1.0, 0.0;
    ( 2, 1, 6, 5 ) 1.0, 0.0;
    ( 2, 1, 6, 6 ) 1.0, 0.0;
    ( 2, 2, 1, 1 ) 0.5, 0.5;
    ( 2, 2, 1, 2 ) 0.5, 0.5;
    ( 2, 2, 1, 3 ) 0.5, 0.5;
    ( 2, 2, 1, 4 ) 0.5, 0.5;
    ( 2, 2, 1, 5 ) 0.5, 0.5;
    ( 2, 2, 1, 6 ) 0.5, 0.5;
    ( 2, 2, 2, 1 ) 1.0, 0.0;
    ( 2, 2, 2, 2 ) 1.0, 0.0;
    ( 2, 2, 2, 3 ) 1.0, 0.0;
    ( 2, 2, 2, 4 ) 1.0, 0.0;
    ( 2, 2, 2, 5 ) 1.0, 0.0;
    ( 2, 2, 2, 6 ) 0.5, 0.5;
    ( 2, 2, 3, 1 ) 0.5, 0.5;
    ( 2, 2, 3, 2 ) 0.5, 0.5;
    ( 2, 2, 3, 3 ) 0.5, 0.5;
    ( 2, 2, 3, 4 ) 0.5, 0.5;
    ( 2, 2, 3, 5 ) 0.5, 0.5;
    ( 2, 2, 3, 6 ) 0.5, 0.5;
    ( 2, 2, 4, 1 ) 0.5, 0.5;
    ( 2, 2, 4, 2 ) 0.5, 0.5;
    ( 2, 2, 4, 3 ) 0.5, 0.5;
    ( 2, 2, 4, 4 ) 0.5, 0.5;
    ( 2, 2, 4, 5 ) 0.5, 0.5;
    ( 2, 2, 4, 6 ) 0.5, 0.5;
    ( 2, 2, 5, 1 ) 0.8857142857142857, 0.11428571428571428;
    ( 2, 2, 5, 2 ) 0.975, 0.025;
    ( 2, 2, 5, 3 ) 0.9075471698113208, 0.09245283018867924;
    ( 2, 2, 5, 4 ) 0.7710280373831776, 0.22897196261682243;
    ( 2, 2, 5, 5 ) 0.7749766573295985, 0.2250233426704015;
    ( 2, 2, 5, 6 ) 0.8197916666666667, 0.18020833333333333;
    ( 2, 2, 6, 1 ) 0.5, 0.5;
    ( 2, 2, 6, 2 ) 0.5, 0.5;
    ( 2, 2, 6, 3 ) 0.5, 0.5;
    ( 2, 2, 6, 4 ) 0.5, 0.5;
    ( 2, 2, 6, 5 ) 0.5, 0.5;
    ( 2, 2, 6, 6 ) 0.5, 0.5;
    ( 2, 3, 1, 1 ) 0.5, 0.5;
    ( 2, 3, 1, 2 ) 0.5, 0.5;
    ( 2, 3, 1, 3 ) 0.5, 0.5;
    ( 2, 3, 1, 4 ) 0.5, 0.5;
    ( 2, 3, 1, 5 ) 0.5, 0.5;
    ( 2, 3, 1, 6 ) 0.5, 0.5;
    ( 2, 3, 2, 1 ) 1.0, 0.0;
    ( 2, 3, 2, 2 ) 1.0, 0.0;
    ( 2, 3, 2, 3 ) 1.0, 0.0;
    ( 2, 3, 2, 4 ) 1.0, 0.0;
    ( 2, 3, 2, 5 ) 1.0, 0.0;
    ( 2, 3, 2, 6 ) 1.0, 0.0;
    ( 2, 3, 3, 1 ) 0.5, 0.5;
    ( 2, 3, 3, 2 ) 1.0, 0.0;
    ( 2, 3, 3, 3 ) 1.0, 0.0;
    ( 2, 3, 3, 4 ) 1.0, 0.0;
    ( 2, 3, 3, 5 ) 1.0, 0.0;
    ( 2, 3, 3, 6 ) 0.5, 0.5;
    ( 2, 3, 4, 1 ) 0.5, 0.5;
    ( 2, 3, 4, 2 ) 0.5, 0.5;
    ( 2, 3, 4, 3 ) 0.5, 0.5;
    ( 2, 3, 4, 4 ) 0.5, 0.5;
    ( 2, 3, 4, 5 ) 0.5, 0.5;
    ( 2, 3, 4, 6 ) 0.5, 0.5;
    ( 2, 3, 5, 1 ) 0.9230769230769231, 0.07692307692307693;
    ( 2, 3, 5, 2 ) 0.9735849056603774, 0.026415094339622643;
    ( 2, 3, 5, 3 ) 0.9367502726281353, 0.06324972737186478;
    ( 2, 3, 5, 4 ) 0.7025316455696202, 0.2974683544303797;
    ( 2, 3, 5, 5 ) 0.5796146044624746, 0.42038539553752535;
    ( 2, 3, 5, 6 ) 0.6695156695156695, 0.33048433048433046;
    ( 2, 3, 6, 1 ) 0.5, 0.5;
    ( 2, 3, 6, 2 ) 0.5, 0.5;
    ( 2, 3, 6, 3 ) 0.5, 0.5;
    ( 2, 3, 6, 4 ) 0.5, 0.5;
    ( 2, 3, 6, 5 ) 0.5, 0.5;
    ( 2, 3, 6, 6 ) 0.5, 0.5;
    ( 3, 1, 1, 1 ) 0.5, 0.5;
    ( 3, 1, 1, 2 ) 1.0, 0.0;
    ( 3, 1, 1, 3 ) 1.0, 0.0;
    ( 3, 1, 1, 4 ) 1.0, 0.0;
    ( 3, 1, 1, 5 ) 1.0, 0.0;
    ( 3, 1, 1, 6 ) 0.5, 0.5;
    ( 3, 1, 2, 1 ) 1.0, 0.0;
    ( 3, 1, 2, 2 ) 1.0, 0.0;
    ( 3, 1, 2, 3 ) 1.0, 0.0;
    ( 3, 1, 2, 4 ) 1.0, 0.0;
    ( 3, 1, 2, 5 ) 1.0, 0.0;
    ( 3, 1, 2, 6 ) 1.0, 0.0;
    ( 3, 1, 3, 1 ) 1.0, 0.0;
    ( 3, 1, 3, 2 ) 1.0, 0.0;
    ( 3, 1, 3, 3 ) 1.0, 0.0;
    ( 3, 1, 3, 4 ) 1.0, 0.0;
    ( 3, 1, 3, 5 ) 1.0, 0.0;
    ( 3, 1, 3, 6 ) 1.0, 0.0;
    ( 3, 1, 4, 1 ) 1.0, 0.0;
    ( 3, 1, 4, 2 ) 1.0, 0.0;
    ( 3, 1, 4, 3 ) 1.0, 0.0;
    ( 3, 1, 4, 4 ) 1.0, 0.0;
    ( 3, 1, 4, 5 ) 1.0, 0.0;
    ( 3, 1, 4, 6 ) 1.0, 0.0;
    ( 3, 1, 5, 1 ) 1.0, 0.0;
    ( 3, 1, 5, 2 ) 1.0, 0.0;
    ( 3, 1, 5, 3 ) 1.0, 0.0;
    ( 3, 1, 5, 4 ) 1.0, 0.0;
    ( 3, 1, 5, 5 ) 1.0, 0.0;
    ( 3, 1, 5, 6 ) 1.0, 0.0;
    ( 3, 1, 6, 1 ) 1.0, 0.0;
    ( 3, 1, 6, 2 ) 1.0, 0.0;
    ( 3, 1, 6, 3 ) 1.0, 0.0;
    ( 3, 1, 6, 4 ) 1.0, 0.0;
    ( 3, 1, 6, 5 ) 1.0, 0.0;
    ( 3, 1, 6, 6 ) 1.0, 0.0;
    ( 3, 2, 1, 1 ) 0.5, 0.5;
    ( 3, 2, 1, 2 ) 0.5, 0.5;
    ( 3, 2, 1, 3 ) 0.5, 0.5;
    ( 3, 2, 1, 4 ) 0.5, 0.5;
    ( 3, 2, 1, 5 ) 0.5, 0.5;
    ( 3, 2, 1, 6 ) 0.5, 0.5;
    ( 3, 2, 2, 1 ) 0.5, 0.5;
    ( 3, 2, 2, 2 ) 0.5, 0.5;
    ( 3, 2, 2, 3 ) 0.5, 0.5;
    ( 3, 2, 2, 4 ) 0.5, 0.5;
    ( 3, 2, 2, 5 ) 0.5, 0.5;
    ( 3, 2, 2, 6 ) 0.5, 0.5;
    ( 3, 2, 3, 1 ) 0.5, 0.5;
    ( 3, 2, 3, 2 ) 0.5, 0.5;
    ( 3, 2, 3, 3 ) 0.5, 0.5;
    ( 3, 2, 3, 4 ) 0.5, 0.5;
    ( 3, 2, 3, 5 ) 0.5, 0.5;
    ( 3, 2, 3, 6 ) 0.5, 0.5;
    ( 3, 2, 4, 1 ) 0.5, 0.5;
    ( 3, 2, 4, 2 ) 0.5, 0.5;
    ( 3, 2, 4, 3 ) 0.5, 0.5;
    ( 3, 2, 4, 4 ) 0.5, 0.5;
    ( 3, 2, 4, 5 ) 0.5, 0.5;
    ( 3, 2, 4, 6 ) 0.5, 0.5;
    ( 3, 2, 5, 1 ) 0.5, 0.5;
    ( 3, 2, 5, 2 ) 0.5, 0.5;
    ( 3, 2, 5, 3 ) 0.5, 0.5;
    ( 3, 2, 5, 4 ) 0.5, 0.5;
    ( 3, 2, 5, 5 ) 0.5, 0.5;
    ( 3, 2, 5, 6 ) 0.5, 0.5;
    ( 3, 2, 6, 1 ) 0.5, 0.5;
    ( 3, 2, 6, 2 ) 0.5, 0.5;
    ( 3, 2, 6, 3 ) 0.5, 0.5;
    ( 3, 2, 6, 4 ) 0.5, 0.5;
    ( 3, 2, 6, 5 ) 0.5, 0.5;
    ( 3, 2, 6, 6 ) 0.5, 0.5;
    ( 3, 3, 1, 1 ) 0.5, 0.5;
    ( 3, 3, 1, 2 ) 0.5, 0.5;
    ( 3, 3, 1, 3 ) 0.5, 0.5;
    ( 3, 3, 1, 4 ) 0.5, 0.5;
    ( 3, 3, 1, 5 ) 0.5, 0.5;
    ( 3, 3, 1, 6 ) 0.5, 0.5;
    ( 3, 3, 2, 1 ) 0.5, 0.5;
    ( 3, 3, 2, 2 ) 0.5, 0.5;
    ( 3, 3, 2, 3 ) 0.5, 0.5;
    ( 3, 3, 2, 4 ) 0.5, 0.5;
    ( 3, 3, 2, 5 ) 0.5, 0.5;
    ( 3, 3, 2, 6 ) 0.5, 0.5;
    ( 3, 3, 3, 1 ) 0.5, 0.5;
    ( 3, 3, 3, 2 ) 0.5, 0.5;
    ( 3, 3, 3, 3 ) 0.5, 0.5;
    ( 3, 3, 3, 4 ) 0.5, 0.5;
    ( 3, 3, 3, 5 ) 0.5, 0.5;
    ( 3, 3, 3, 6 ) 0.5, 0.5;
    ( 3, 3, 4, 1 ) 0.5, 0.5;
    ( 3, 3, 4, 2 ) 0.5, 0.5;
    ( 3, 3, 4, 3 ) 0.5, 0.5;
    ( 3, 3, 4, 4 ) 0.5, 0.5;
    ( 3, 3, 4, 5 ) 0.5, 0.5;
    ( 3, 3, 4, 6 ) 0.5, 0.5;
    ( 3, 3, 5, 1 ) 0.5, 0.5;
    ( 3, 3, 5, 2 ) 0.5, 0.5;
    ( 3, 3, 5, 3 ) 0.5, 0.5;
    ( 3, 3, 5, 4 ) 0.5, 0.5;
    ( 3, 3, 5, 5 ) 0.5, 0.5;
    ( 3, 3, 5, 6 ) 0.5, 0.5;
    ( 3, 3, 6, 1 ) 0.5, 0.5;
    ( 3, 3, 6, 2 ) 0.5, 0.5;
    ( 3, 3, 6, 3 ) 0.5, 0.5;
    ( 3, 3, 6, 4 ) 0.5, 0.5;
    ( 3, 3, 6, 5 ) 0.5, 0.5;
    ( 3, 3, 6, 6 ) 0.5, 0.5;

}
probability ( colegio_calendario | colegio_jornada, colegio_privado, colegio_rural, familia_estrato ) {
    ( 1, 0, 0, 1 ) 1.0, 0.0, 0.0;
    ( 1, 0, 0, 2 ) 1.0, 0.0, 0.0;
    ( 1, 0, 0, 3 ) 1.0, 0.0, 0.0;
    ( 1, 0, 0, 4 ) 1.0, 0.0, 0.0;
    ( 1, 0, 0, 5 ) 1.0, 0.0, 0.0;
    ( 1, 0, 0, 6 ) 1.0, 0.0, 0.0;
    ( 1, 0, 1, 1 ) 1.0, 0.0, 0.0;
    ( 1, 0, 1, 2 ) 1.0, 0.0, 0.0;
    ( 1, 0, 1, 3 ) 1.0, 0.0, 0.0;
    ( 1, 0, 1, 4 ) 1.0, 0.0, 0.0;
    ( 1, 0, 1, 5 ) 1.0, 0.0, 0.0;
    ( 1, 0, 1, 6 ) 1.0, 0.0, 0.0;
    ( 1, 1, 0, 1 ) 0.9980314960629921, 0.001968503937007874, 0.0;
    ( 1, 1, 0, 2 ) 0.9922791846819025, 0.0077208153180975915, 0.0;
    ( 1, 1, 0, 3 ) 0.980625275209159, 0.019374724790841038, 0.0;
    ( 1, 1, 0, 4 ) 0.9631336405529954, 0.03686635944700461, 0.0;
    ( 1, 1, 0, 5 ) 0.8135593220338984, 0.1864406779661017, 0.0;
    ( 1, 1, 0, 6 ) 0.48314606741573035, 0.5168539325842697, 0.0;
    ( 1, 1, 1, 1 ) 1.0, 0.0, 0.0;
    ( 1, 1, 1, 2 ) 0.9900990099009901, 0.0, 0.009900990099009901;
    ( 1, 1, 1, 3 ) 0.9819819819819819, 0.0, 0.018018018018018018;
    ( 1, 1, 1, 4 ) 0.9899799599198397, 0.0, 0.01002004008016032;
    ( 1, 1, 1, 5 ) 0.9813084112149533, 0.0, 0.018691588785046728;
    ( 1, 1, 1, 6 ) 1.0, 0.0, 0.0;
    ( 2, 0, 0, 1 ) 0.9999977733640906, 0.0, 2.226635909402638e-06;
    ( 2, 0, 0, 2 ) 0.9999279585785066, 0.0, 7.204142149344191e-05;
    ( 2, 0, 0, 3 ) 0.99979535723281, 0.0, 0.00020464276718999244;
    ( 2, 0, 0, 4 ) 0.9999561403508772, 0.0, 4.3859649122807014e-05;
    ( 2, 0, 0, 5 ) 1.0, 0.0, 0.0;
    ( 2, 0, 0, 6 ) 1.0, 0.0, 0.0;
    ( 2, 0, 1, 1 ) 1.0, 0.0, 0.0;
    ( 2, 0, 1, 2 ) 1.0, 0.0, 0.0;
    ( 2, 0, 1, 3 ) 1.0, 0.0, 0.0;
    ( 2, 0, 1, 4 ) 1.0, 0.0, 0.0;
    ( 2, 0, 1, 5 ) 1.0, 0.0, 0.0;
    ( 2, 0, 1, 6 ) 1.0, 0.0, 0.0;
    ( 2, 1, 0, 1 ) 0.9437138348237769, 0.029928846313574575, 0.026357318862648468;
    ( 2, 1, 0, 2 ) 0.9022164592396903, 0.0639852639998061, 0.03379827676050364;
    ( 2, 1, 0, 3 ) 0.8353629447359832, 0.13993019810681195, 0.02470685715720491;
    ( 2, 1, 0, 4 ) 0.8109758410133879, 0.1726021162817158, 0.01642204270489627;
    ( 2, 1, 0, 5 ) 0.7461512902868535, 0.23745708273341457, 0.016391626979731976;
    ( 2, 1, 0, 6 ) 0.7722405271828665, 0.20757825370675453, 0.02018121911037891;
    ( 2, 1, 1, 1 ) 0.9758179231863442, 0.001422475106685633, 0.02275960170697013;
    ( 2, 1, 1, 2 ) 0.967397747480735, 0.005927682276229994, 0.026674570243034972;
    ( 2, 1, 1, 3 ) 0.9115462525320729, 0.015530047265361242, 0.07292370020256583;
    ( 2, 1, 1, 4 ) 0.7502903600464577, 0.08246225319396051, 0.1672473867595819;
    ( 2, 1, 1, 5 ) 0.7269890795631825, 0.1981279251170047, 0.0748829953198128;
    ( 2, 1, 1, 6 ) 0.4479638009049774, 0.5271493212669683, 0.024886877828054297;
    ( 3, 0, 0, 1 ) 0.9999696247133333, 0.0, 3.037528666676792e-05;
    ( 3, 0, 0, 2 ) 0.9999236461066455, 0.0, 7.635389335443477e-05;
    ( 3, 0, 0, 3 ) 0.9997433594251252, 0.0, 0.0002566405748748877;
    ( 3, 0, 0, 4 ) 0.9998624862486248, 0.0, 0.0001375137513751375;
    ( 3, 0, 0, 5 ) 0.9993891264508247, 0.0, 0.0006108735491753207;
    ( 3, 0, 0, 6 ) 1.0, 0.0, 0.0;
    ( 3, 0, 1, 1 ) 1.0, 0.0, 0.0;
    ( 3, 0, 1, 2 ) 1.0, 0.0, 0.0;
    ( 3, 0, 1, 3 ) 1.0, 0.0, 0.0;
    ( 3, 0, 1, 4 ) 1.0, 0.0, 0.0;
    ( 3, 0, 1, 5 ) 1.0, 0.0, 0.0;
    ( 3, 0, 1, 6 ) 1.0, 0.0, 0.0;
    ( 3, 1, 0, 1 ) 0.9594148183105239, 0.006701274185936763, 0.0338839075035394;
    ( 3, 1, 0, 2 ) 0.9289106145251397, 0.024860335195530728, 0.04622905027932961;
    ( 3, 1, 0, 3 ) 0.8667626935541952, 0.09398631616852719, 0.03925099027727764;
    ( 3, 1, 0, 4 ) 0.8991838694191071, 0.07873259721555449, 0.022083533365338453;
    ( 3, 1, 0, 5 ) 0.934876989869754, 0.04486251808972504, 0.020260492040520984;
    ( 3, 1, 0, 6 ) 0.922077922077922, 0.047619047619047616, 0.030303030303030304;
    ( 3, 1, 1, 1 ) 1.0, 0.0, 0.0;
    ( 3, 1, 1, 2 ) 1.0, 0.0, 0.0;
    ( 3, 1, 1, 3 ) 1.0, 0.0, 0.0;
    ( 3, 1, 1, 4 ) 1.0, 0.0, 0.0;
    ( 3, 1, 1, 5 ) 1.0, 0.0, 0.0;
    ( 3, 1, 1, 6 ) 1.0, 0.0, 0.0;
    ( 4, 0, 0, 1 ) 0.9997880746582704, 0.0, 0.00021192534172961353;
    ( 4, 0, 0, 2 ) 0.9976066617876852, 0.0, 0.002393338212314813;
    ( 4, 0, 0, 3 ) 0.9929225439247711, 0.0, 0.007077456075228904;
    ( 4, 0, 0, 4 ) 0.9970951343500363, 0.0, 0.002904865649963689;
    ( 4, 0, 0, 5 ) 1.0, 0.0, 0.0;
    ( 4, 0, 0, 6 ) 1.0, 0.0, 0.0;
    ( 4, 0, 1, 1 ) 1.0, 0.0, 0.0;
    ( 4, 0, 1, 2 ) 1.0, 0.0, 0.0;
    ( 4, 0, 1, 3 ) 1.0, 0.0, 0.0;
    ( 4, 0, 1, 4 ) 1.0, 0.0, 0.0;
    ( 4, 0, 1, 5 ) 1.0, 0.0, 0.0;
    ( 4, 0, 1, 6 ) 1.0, 0.0, 0.0;
    ( 4, 1, 0, 1 ) 0.9185934065934066, 0.0494065934065934, 0.032;
    ( 4, 1, 0, 2 ) 0.8571095299195147, 0.0738364633150589, 0.06905400676542633;
    ( 4, 1, 0, 3 ) 0.8260170075844634, 0.08963456676626062, 0.08434842564927603;
    ( 4, 1, 0, 4 ) 0.7664818237831177, 0.14294516327788045, 0.09057301293900184;
    ( 4, 1, 0, 5 ) 0.735655737704918, 0.17008196721311475, 0.0942622950819672;
    ( 4, 1, 0, 6 ) 0.7463414634146341, 0.18048780487804877, 0.07317073170731707;
    ( 4, 1, 1, 1 ) 0.7555555555555555, 0.24444444444444444, 0.0;
    ( 4, 1, 1, 2 ) 0.30952380952380953, 0.6904761904761905, 0.0;
    ( 4, 1, 1, 3 ) 0.9375, 0.0625, 0.0;
    ( 4, 1, 1, 4 ) 1.0, 0.0, 0.0;
    ( 4, 1, 1, 5 ) 1.0, 0.0, 0.0;
    ( 4, 1, 1, 6 ) 1.0, 0.0, 0.0;
    ( 5, 0, 0, 1 ) 1.0, 0.0, 0.0;
    ( 5, 0, 0, 2 ) 1.0, 0.0, 0.0;
    ( 5, 0, 0, 3 ) 1.0, 0.0, 0.0;
    ( 5, 0, 0, 4 ) 1.0, 0.0, 0.0;
    ( 5, 0, 0, 5 ) 1.0, 0.0, 0.0;
    ( 5, 0, 0, 6 ) 1.0, 0.0, 0.0;
    ( 5, 0, 1, 1 ) 1.0, 0.0, 0.0;
    ( 5, 0, 1, 2 ) 1.0, 0.0, 0.0;
    ( 5, 0, 1, 3 ) 1.0, 0.0, 0.0;
    ( 5, 0, 1, 4 ) 1.0, 0.0, 0.0;
    ( 5, 0, 1, 5 ) 1.0, 0.0, 0.0;
    ( 5, 0, 1, 6 ) 1.0, 0.0, 0.0;
    ( 5, 1, 0, 1 ) 0.9778030734206034, 0.021627774615822423, 0.0005691519635742744;
    ( 5, 1, 0, 2 ) 0.9773631277689746, 0.022000883915963308, 0.0006359883150621436;
    ( 5, 1, 0, 3 ) 0.9536990231573195, 0.045877450645535896, 0.0004235261971446137;
    ( 5, 1, 0, 4 ) 0.8502016215214944, 0.14972713412462063, 7.124435388495462e-05;
    ( 5, 1, 0, 5 ) 0.626483644492019, 0.3734848723357366, 3.148317224443535e-05;
    ( 5, 1, 0, 6 ) 0.39031269756358505, 0.6096873024364149, 0.0;
    ( 5, 1, 1, 1 ) 0.9675433687744823, 0.032456631225517625, 0.0;
    ( 5, 1, 1, 2 ) 0.7855808741128129, 0.21292491595069107, 0.0014942099364960778;
    ( 5, 1, 1, 3 ) 0.7865519937451134, 0.2104769351055512, 0.002971071149335418;
    ( 5, 1, 1, 4 ) 0.5547393699675095, 0.4315581296793332, 0.013702500353157225;
    ( 5, 1, 1, 5 ) 0.3641607000795545, 0.6247016706443914, 0.011137629276054098;
    ( 5, 1, 1, 6 ) 0.18659711075441412, 0.8037720706260032, 0.009630818619582664;
    ( 6, 0, 0, 1 ) 1.0, 0.0, 0.0;
    ( 6, 0, 0, 2 ) 1.0, 0.0, 0.0;
    ( 6, 0, 0, 3 ) 1.0, 0.0, 0.0;
    ( 6, 0, 0, 4 ) 1.0, 0.0, 0.0;
    ( 6, 0, 0, 5 ) 1.0, 0.0, 0.0;
    ( 6, 0, 0, 6 ) 1.0, 0.0, 0.0;
    ( 6, 0, 1, 1 ) 1.0, 0.0, 0.0;
    ( 6, 0, 1, 2 ) 1.0, 0.0, 0.0;
    ( 6, 0, 1, 3 ) 1.0, 0.0, 0.0;
    ( 6, 0, 1, 4 ) 1.0, 0.0, 0.0;
    ( 6, 0, 1, 5 ) 1.0, 0.0, 0.0;
    ( 6, 0, 1, 6 ) 1.0, 0.0, 0.0;
    ( 6, 1, 0, 1 ) 0.9574134844868735, 0.011560262529832936, 0.031026252983293555;
    ( 6, 1, 0, 2 ) 0.9269006867222087, 0.016732317774601737, 0.0563669955031896;
    ( 6, 1, 0, 3 ) 0.9049177427914382, 0.024234919511763667, 0.07084733769679816;
    ( 6, 1, 0, 4 ) 0.9104919976289271, 0.03793716656787196, 0.051570835803200946;
    ( 6, 1, 0, 5 ) 0.8959183673469387, 0.0673469387755102, 0.036734693877551024;
    ( 6, 1, 0, 6 ) 0.8933823529411765, 0.07720588235294118, 0.029411764705882353;
    ( 6, 1, 1, 1 ) 0.8507936507936508, 0.1492063492063492, 0.0;
    ( 6, 1, 1, 2 ) 0.8037735849056604, 0.19622641509433963, 0.0;
    ( 6, 1, 1, 3 ) 0.956140350877193, 0.043859649122807015, 0.0;
    ( 6, 1, 1, 4 ) 1.0, 0.0, 0.0;
    ( 6, 1, 1, 5 ) 1.0, 0.0, 0.0;
    ( 6, 1, 1, 6 ) 1.0, 0.0, 0.0;

}
probability ( colegio_genero | colegio_jornada, colegio_rural, familia_estrato, madre_educacion ) {
    ( 1, 0, 1, 1 ) 0.9747939893359185, 0.015511391177896268, 0.009694619486185167;
    ( 1, 0, 1, 2 ) 0.9756749706534499, 0.009521325159775662, 0.014803704186774487;
    ( 1, 0, 1, 3 ) 0.975729188843943, 0.008409623163721524, 0.015861187992335532;
    ( 1, 0, 1, 4 ) 0.969950453638762, 0.003667717650086867, 0.026381828711151148;
    ( 1, 0, 1, 5 ) 0.9621525509833805, 0.004209304013353654, 0.03363814500326584;
    ( 1, 0, 1, 6 ) 0.9362947658402204, 0.004476584022038568, 0.05922865013774105;
    ( 1, 0, 1, 7 ) 0.9324960753532182, 0.0029154518950437317, 0.06458847275173805;
    ( 1, 0, 1, 8 ) 0.9192708333333334, 0.011067708333333334, 0.06966145833333333;
    ( 1, 0, 1, 9 ) 0.925971120601993, 0.006304657311368721, 0.0677242220866382;
    ( 1, 0, 1, 10 ) 0.9547413793103449, 0.008620689655172414, 0.036637931034482756;
    ( 1, 0, 2, 1 ) 0.962280701754386, 0.021052631578947368, 0.016666666666666666;
    ( 1, 0, 2, 2 ) 0.9723407887997269, 0.00828068977292129, 0.019378521427351886;
    ( 1, 0, 2, 3 ) 0.9724186704384724, 0.007577288341079006, 0.020004041220448576;
    ( 1, 0, 2, 4 ) 0.9654542434811493, 0.004373581354149366, 0.030172175164701324;
    ( 1, 0, 2, 5 ) 0.9526042454495034, 0.006731205566480109, 0.04066454898401654;
    ( 1, 0, 2, 6 ) 0.9249091643116674, 0.005450141299959629, 0.06964069438837303;
    ( 1, 0, 2, 7 ) 0.9101195833869101, 0.008550855085508551, 0.08132956152758133;
    ( 1, 0, 2, 8 ) 0.9046898638426626, 0.02027231467473525, 0.07503782148260212;
    ( 1, 0, 2, 9 ) 0.9050859286399721, 0.01264939370147431, 0.08226467765855361;
    ( 1, 0, 2, 10 ) 0.9199683042789224, 0.011093502377179081, 0.06893819334389857;
    ( 1, 0, 3, 1 ) 0.9634464751958225, 0.010443864229765013, 0.02610966057441253;
    ( 1, 0, 3, 2 ) 0.9732386673948662, 0.006007646095030038, 0.02075368651010377;
    ( 1, 0, 3, 3 ) 0.95008, 0.01408, 0.03584;
    ( 1, 0, 3, 4 ) 0.9603619678817231, 0.006117767015039511, 0.033520265103237315;
    ( 1, 0, 3, 5 ) 0.940403615724196, 0.010826150935463527, 0.04877023334034055;
    ( 1, 0, 3, 6 ) 0.9133425034387895, 0.012723521320495186, 0.07393397524071527;
    ( 1, 0, 3, 7 ) 0.9059662775616083, 0.011997405966277562, 0.08203631647211414;
    ( 1, 0, 3, 8 ) 0.9090202177293935, 0.017496111975116642, 0.0734836702954899;
    ( 1, 0, 3, 9 ) 0.9031145484949833, 0.018499163879598664, 0.07838628762541806;
    ( 1, 0, 3, 10 ) 0.8696245733788396, 0.026621160409556314, 0.1037542662116041;
    ( 1, 0, 4, 1 ) 1.0, 0.0, 0.0;
    ( 1, 0, 4, 2 ) 0.9636048526863085, 0.012131715771230503, 0.024263431542461005;
    ( 1, 0, 4, 3 ) 0.9772329246935202, 0.014010507880910683, 0.008756567425569177;
    ( 1, 0, 4, 4 ) 0.9577464788732394, 0.009389671361502348, 0.03286384976525822;
    ( 1, 0, 4, 5 ) 0.9537154989384289, 0.005520169851380042, 0.04076433121019108;
    ( 1, 0, 4, 6 ) 0.9475982532751092, 0.010917030567685589, 0.04148471615720524;
    ( 1, 0, 4, 7 ) 0.9235611510791367, 0.0044964028776978415, 0.07194244604316546;
    ( 1, 0, 4, 8 ) 0.9140271493212669, 0.013574660633484163, 0.07239819004524888;
    ( 1, 0, 4, 9 ) 0.9273657289002557, 0.01381074168797954, 0.058823529411764705;
    ( 1, 0, 4, 10 ) 0.8789954337899544, 0.00684931506849315, 0.1141552511415525;
    ( 1, 0, 5, 1 ) 0.9710144927536232, 0.028985507246376812, 0.0;
    ( 1, 0, 5, 2 ) 0.9666666666666667, 0.02857142857142857, 0.004761904761904762;
    ( 1, 0, 5, 3 ) 0.9757085020242915, 0.008097165991902834, 0.016194331983805668;
    ( 1, 0, 5, 4 ) 0.9851632047477745, 0.005934718100890208, 0.008902077151335312;
    ( 1, 0, 5, 5 ) 0.9710843373493976, 0.004819277108433735, 0.024096385542168676;
    ( 1, 0, 5, 6 ) 1.0, 0.0, 0.0;
    ( 1, 0, 5, 7 ) 0.9583333333333334, 0.010416666666666666, 0.03125;
    ( 1, 0, 5, 8 ) 1.0, 0.0, 0.0;
    ( 1, 0, 5, 9 ) 0.9610027855153204, 0.011142061281337047, 0.027855153203342618;
    ( 1, 0, 5, 10 ) 0.9333333333333333, 0.0, 0.06666666666666667;
    ( 1, 0, 6, 1 ) 1.0, 0.0, 0.0;
    ( 1, 0, 6, 2 ) 0.984, 0.0, 0.016;
    ( 1, 0, 6, 3 ) 0.961038961038961, 0.025974025974025976, 0.012987012987012988;
    ( 1, 0, 6, 4 ) 0.9631578947368421, 0.015789473684210527, 0.021052631578947368;
    ( 1, 0, 6, 5 ) 0.9411764705882353, 0.008403361344537815, 0.05042016806722689;
    ( 1, 0, 6, 6 ) 0.8666666666666667, 0.0, 0.13333333333333333;
    ( 1, 0, 6, 7 ) 0.9866666666666667, 0.013333333333333334, 0.0;
    ( 1, 0, 6, 8 ) 1.0, 0.0, 0.0;
    ( 1, 0, 6, 9 ) 1.0, 0.0, 0.0;
    ( 1, 0, 6, 10 ) 1.0, 0.0, 0.0;
    ( 1, 1, 1, 1 ) 0.992583436341162, 0.0, 0.007416563658838072;
    ( 1, 1, 1, 2 ) 0.9973743435858965, 0.0, 0.002625656414103526;
    ( 1, 1, 1, 3 ) 0.9975354282193469, 0.0, 0.0024645717806531116;
    ( 1, 1, 1, 4 ) 0.9976047904191617, 0.0, 0.0023952095808383233;
    ( 1, 1, 1, 5 ) 0.9960699548044802, 0.0, 0.003930045195519749;
    ( 1, 1, 1, 6 ) 0.9949622166246851, 0.0, 0.005037783375314861;
    ( 1, 1, 1, 7 ) 1.0, 0.0, 0.0;
    ( 1, 1, 1, 8 ) 0.9760479041916168, 0.0, 0.023952095808383235;
    ( 1, 1, 1, 9 ) 0.9932773109243698, 0.0, 0.0067226890756302525;
    ( 1, 1, 1, 10 ) 1.0, 0.0, 0.0;
    ( 1, 1, 2, 1 ) 0.994535519125683, 0.0, 0.00546448087431694;
    ( 1, 1, 2, 2 ) 0.9959335818366656, 0.0, 0.004066418163334463;
    ( 1, 1, 2, 3 ) 0.9982525120139799, 0.0, 0.0017474879860200961;
    ( 1, 1, 2, 4 ) 0.9977611940298508, 0.0, 0.002238805970149254;
    ( 1, 1, 2, 5 ) 0.9978279756733276, 0.0, 0.002172024326672459;
    ( 1, 1, 2, 6 ) 1.0, 0.0, 0.0;
    ( 1, 1, 2, 7 ) 0.9983673469387755, 0.0, 0.0016326530612244899;
    ( 1, 1, 2, 8 ) 1.0, 0.0, 0.0;
    ( 1, 1, 2, 9 ) 1.0, 0.0, 0.0;
    ( 1, 1, 2, 10 ) 1.0, 0.0, 0.0;
    ( 1, 1, 3, 1 ) 1.0, 0.0, 0.0;
    ( 1, 1, 3, 2 ) 0.9977876106194691, 0.0, 0.0022123893805309734;
    ( 1, 1, 3, 3 ) 0.9965217391304347, 0.0, 0.0034782608695652175;
    ( 1, 1, 3, 4 ) 1.0, 0.0, 0.0;
    ( 1, 1, 3, 5 ) 0.9988757729061271, 0.0, 0.0011242270938729624;
    ( 1, 1, 3, 6 ) 1.0, 0.0, 0.0;
    ( 1, 1, 3, 7 ) 1.0, 0.0, 0.0;
    ( 1, 1, 3, 8 ) 1.0, 0.0, 0.0;
    ( 1, 1, 3, 9 ) 1.0, 0.0, 0.0;
    ( 1, 1, 3, 10 ) 1.0, 0.0, 0.0;
    ( 1, 1, 4, 1 ) 1.0, 0.0, 0.0;
    ( 1, 1, 4, 2 ) 0.992, 0.0, 0.008;
    ( 1, 1, 4, 3 ) 1.0, 0.0, 0.0;
    ( 1, 1, 4, 4 ) 0.9900497512437811, 0.0, 0.009950248756218905;
    ( 1, 1, 4, 5 ) 1.0, 0.0, 0.0;
    ( 1, 1, 4, 6 ) 1.0, 0.0, 0.0;
    ( 1, 1, 4, 7 ) 1.0, 0.0, 0.0;
    ( 1, 1, 4, 8 ) 1.0, 0.0, 0.0;
    ( 1, 1, 4, 9 ) 1.0, 0.0, 0.0;
    ( 1, 1, 4, 10 ) 1.0, 0.0, 0.0;
    ( 1, 1, 5, 1 ) 1.0, 0.0, 0.0;
    ( 1, 1, 5, 2 ) 1.0, 0.0, 0.0;
    ( 1, 1, 5, 3 ) 1.0, 0.0, 0.0;
    ( 1, 1, 5, 4 ) 1.0, 0.0, 0.0;
    ( 1, 1, 5, 5 ) 0.9857142857142858, 0.0, 0.014285714285714285;
    ( 1, 1, 5, 6 ) 1.0, 0.0, 0.0;
    ( 1, 1, 5, 7 ) 1.0, 0.0, 0.0;
    ( 1, 1, 5, 8 ) 1.0, 0.0, 0.0;
    ( 1, 1, 5, 9 ) 1.0, 0.0, 0.0;
    ( 1, 1, 5, 10 ) 1.0, 0.0, 0.0;
    ( 1, 1, 6, 1 ) 1.0, 0.0, 0.0;
    ( 1, 1, 6, 2 ) 1.0, 0.0, 0.0;
    ( 1, 1, 6, 3 ) 1.0, 0.0, 0.0;
    ( 1, 1, 6, 4 ) 1.0, 0.0, 0.0;
    ( 1, 1, 6, 5 ) 1.0, 0.0, 0.0;
    ( 1, 1, 6, 6 ) 1.0, 0.0, 0.0;
    ( 1, 1, 6, 7 ) 1.0, 0.0, 0.0;
    ( 1, 1, 6, 8 ) 1.0, 0.0, 0.0;
    ( 1, 1, 6, 9 ) 1.0, 0.0, 0.0;
    ( 1, 1, 6, 10 ) 1.0, 0.0, 0.0;
    ( 2, 0, 1, 1 ) 0.9879737320990585, 0.0029274467916765566, 0.009098821109264974;
    ( 2, 0, 1, 2 ) 0.9894099525052416, 0.0012622480852338368, 0.009327799409524624;
    ( 2, 0, 1, 3 ) 0.9879409647228222, 0.002249820014398848, 0.009809215262778977;
    ( 2, 0, 1, 4 ) 0.9828282710688383, 0.0019441889705111937, 0.015227539960650547;
    ( 2, 0, 1, 5 ) 0.9775160985599631, 0.0022426213431210656, 0.020241280096915854;
    ( 2, 0, 1, 6 ) 0.9659199693662646, 0.0023932605782117557, 0.031686770055523644;
    ( 2, 0, 1, 7 ) 0.965237284825489, 0.003180537343414335, 0.03158217783109673;
    ( 2, 0, 1, 8 ) 0.9551005072327635, 0.0031936877700544804, 0.04170580499718204;
    ( 2, 0, 1, 9 ) 0.9627247670297939, 0.0029312683204270025, 0.03434396464977906;
    ( 2, 0, 1, 10 ) 0.9565217391304348, 0.003952569169960474, 0.039525691699604744;
    ( 2, 0, 2, 1 ) 0.9872420262664166, 0.0028142589118198874, 0.009943714821763603;
    ( 2, 0, 2, 2 ) 0.9870324476975391, 0.0011718825043705455, 0.011795669798090408;
    ( 2, 0, 2, 3 ) 0.9851427081975759, 0.0016942525739606412, 0.013163039228463444;
    ( 2, 0, 2, 4 ) 0.9795844222813412, 0.0023204847234755705, 0.018095092995183235;
    ( 2, 0, 2, 5 ) 0.9722244203529319, 0.0033687923218666273, 0.024406787325201507;
    ( 2, 0, 2, 6 ) 0.9612443517553007, 0.0031861893175761788, 0.03556945892712316;
    ( 2, 0, 2, 7 ) 0.9548074268360022, 0.004451960242959691, 0.0407406129210381;
    ( 2, 0, 2, 8 ) 0.955970770511516, 0.005179909351586348, 0.038849320136897604;
    ( 2, 0, 2, 9 ) 0.9521274339286472, 0.006745004878462648, 0.04112756119289017;
    ( 2, 0, 2, 10 ) 0.9526674054139623, 0.006648725660914991, 0.040683868925122685;
    ( 2, 0, 3, 1 ) 0.9712820512820513, 0.006153846153846154, 0.022564102564102566;
    ( 2, 0, 3, 2 ) 0.9717996804889908, 0.003959158157949573, 0.024241161353059665;
    ( 2, 0, 3, 3 ) 0.9683069224353628, 0.0037852056200680054, 0.02790787194456919;
    ( 2, 0, 3, 4 ) 0.9594108778847269, 0.006001391627043952, 0.034587730488229156;
    ( 2, 0, 3, 5 ) 0.9484045857570452, 0.0077935279832834475, 0.04380188625967132;
    ( 2, 0, 3, 6 ) 0.9374887407674293, 0.008466942893172402, 0.05404431633939831;
    ( 2, 0, 3, 7 ) 0.9221213569039656, 0.010737546206653759, 0.06714109688938064;
    ( 2, 0, 3, 8 ) 0.9218040560992836, 0.014327514882453839, 0.06386842901826253;
    ( 2, 0, 3, 9 ) 0.9142968277292766, 0.016812170455527704, 0.06889100181519578;
    ( 2, 0, 3, 10 ) 0.8889565323267989, 0.02203823207110678, 0.08900523560209424;
    ( 2, 0, 4, 1 ) 0.9686800894854586, 0.011185682326621925, 0.020134228187919462;
    ( 2, 0, 4, 2 ) 0.9703324808184143, 0.006138107416879796, 0.023529411764705882;
    ( 2, 0, 4, 3 ) 0.9639513108614233, 0.005149812734082397, 0.03089887640449438;
    ( 2, 0, 4, 4 ) 0.9402576048232393, 0.012332145793368046, 0.04741024938339271;
    ( 2, 0, 4, 5 ) 0.9172919057286609, 0.02021361108659193, 0.06249448318474711;
    ( 2, 0, 4, 6 ) 0.898567335243553, 0.022349570200573064, 0.07908309455587392;
    ( 2, 0, 4, 7 ) 0.8718364698247891, 0.03017521090201168, 0.09798831927319922;
    ( 2, 0, 4, 8 ) 0.8841150965707528, 0.02640914465904612, 0.08947575877020103;
    ( 2, 0, 4, 9 ) 0.8627425360945973, 0.044228130920493894, 0.09302933298490887;
    ( 2, 0, 4, 10 ) 0.8358132375577219, 0.05310415597742432, 0.11108260646485377;
    ( 2, 0, 5, 1 ) 0.9619565217391305, 0.016304347826086956, 0.021739130434782608;
    ( 2, 0, 5, 2 ) 0.9670487106017192, 0.011461318051575931, 0.02148997134670487;
    ( 2, 0, 5, 3 ) 0.9800443458980045, 0.004434589800443459, 0.015521064301552107;
    ( 2, 0, 5, 4 ) 0.954225352112676, 0.011443661971830986, 0.03433098591549296;
    ( 2, 0, 5, 5 ) 0.9121457489878543, 0.03360323886639676, 0.05425101214574899;
    ( 2, 0, 5, 6 ) 0.9021739130434783, 0.03695652173913044, 0.06086956521739131;
    ( 2, 0, 5, 7 ) 0.8706666666666667, 0.04, 0.08933333333333333;
    ( 2, 0, 5, 8 ) 0.8741450068399452, 0.0506155950752394, 0.07523939808481532;
    ( 2, 0, 5, 9 ) 0.8770700636942675, 0.05138004246284501, 0.07154989384288747;
    ( 2, 0, 5, 10 ) 0.8473684210526315, 0.049342105263157895, 0.10328947368421053;
    ( 2, 0, 6, 1 ) 0.9565217391304348, 0.0, 0.043478260869565216;
    ( 2, 0, 6, 2 ) 0.9908814589665653, 0.0, 0.00911854103343465;
    ( 2, 0, 6, 3 ) 0.9805352798053528, 0.0024330900243309003, 0.0170316301703163;
    ( 2, 0, 6, 4 ) 0.9677996422182469, 0.005366726296958855, 0.026833631484794274;
    ( 2, 0, 6, 5 ) 0.9346895074946466, 0.02676659528907923, 0.03854389721627409;
    ( 2, 0, 6, 6 ) 0.9465648854961832, 0.022900763358778626, 0.030534351145038167;
    ( 2, 0, 6, 7 ) 0.8831521739130435, 0.06521739130434782, 0.051630434782608696;
    ( 2, 0, 6, 8 ) 0.8600823045267489, 0.04526748971193416, 0.09465020576131687;
    ( 2, 0, 6, 9 ) 0.905476369092273, 0.028507126781695424, 0.06601650412603151;
    ( 2, 0, 6, 10 ) 0.9061784897025171, 0.020594965675057208, 0.07322654462242563;
    ( 2, 1, 1, 1 ) 0.9974373576309795, 0.0005694760820045558, 0.0019931662870159455;
    ( 2, 1, 1, 2 ) 0.9974986993236483, 0.0008404370272541722, 0.0016608636490975308;
    ( 2, 1, 1, 3 ) 0.9972970537886297, 0.0004805237709102922, 0.0022224224404601015;
    ( 2, 1, 1, 4 ) 0.9980342952739439, 0.00020911752404851526, 0.0017565872020075283;
    ( 2, 1, 1, 5 ) 0.9987980769230769, 6.868131868131868e-05, 0.0011332417582417583;
    ( 2, 1, 1, 6 ) 0.9975445058317987, 0.0, 0.0024554941682013503;
    ( 2, 1, 1, 7 ) 1.0, 0.0, 0.0;
    ( 2, 1, 1, 8 ) 1.0, 0.0, 0.0;
    ( 2, 1, 1, 9 ) 0.9987071751777634, 0.0, 0.001292824822236587;
    ( 2, 1, 1, 10 ) 1.0, 0.0, 0.0;
    ( 2, 1, 2, 1 ) 0.9951845906902087, 0.0, 0.004815409309791332;
    ( 2, 1, 2, 2 ) 0.9931428571428571, 0.0007032967032967033, 0.006153846153846154;
    ( 2, 1, 2, 3 ) 0.9962260081949537, 0.0003234850118611171, 0.003450506793185249;
    ( 2, 1, 2, 4 ) 0.9986922406277245, 0.00043591979075850045, 0.0008718395815170009;
    ( 2, 1, 2, 5 ) 0.9979637548360822, 0.0002714993551890314, 0.0017647458087287043;
    ( 2, 1, 2, 6 ) 0.999, 0.0, 0.001;
    ( 2, 1, 2, 7 ) 0.9966299019607843, 0.0, 0.0033700980392156864;
    ( 2, 1, 2, 8 ) 1.0, 0.0, 0.0;
    ( 2, 1, 2, 9 ) 0.9993031358885017, 0.0, 0.0006968641114982578;
    ( 2, 1, 2, 10 ) 0.9950124688279302, 0.0, 0.004987531172069825;
    ( 2, 1, 3, 1 ) 0.9973821989528796, 0.0, 0.002617801047120419;
    ( 2, 1, 3, 2 ) 0.9969666329625885, 0.0010111223458038423, 0.0020222446916076846;
    ( 2, 1, 3, 3 ) 0.9967069154774972, 0.0010976948408342481, 0.0021953896816684962;
    ( 2, 1, 3, 4 ) 0.9976293954958514, 0.0007902015013828526, 0.0015804030027657052;
    ( 2, 1, 3, 5 ) 0.9986604152712659, 0.00044652824291136416, 0.0008930564858227283;
    ( 2, 1, 3, 6 ) 1.0, 0.0, 0.0;
    ( 2, 1, 3, 7 ) 1.0, 0.0, 0.0;
    ( 2, 1, 3, 8 ) 0.9973684210526316, 0.0, 0.002631578947368421;
    ( 2, 1, 3, 9 ) 0.9977011494252873, 0.0, 0.0022988505747126436;
    ( 2, 1, 3, 10 ) 1.0, 0.0, 0.0;
    ( 2, 1, 4, 1 ) 1.0, 0.0, 0.0;
    ( 2, 1, 4, 2 ) 0.9967637540453075, 0.002157497303128371, 0.0010787486515641855;
    ( 2, 1, 4, 3 ) 0.9916167664670659, 0.0023952095808383233, 0.005988023952095809;
    ( 2, 1, 4, 4 ) 1.0, 0.0, 0.0;
    ( 2, 1, 4, 5 ) 0.9939301972685888, 0.0, 0.006069802731411229;
    ( 2, 1, 4, 6 ) 0.9936305732484076, 0.0, 0.006369426751592357;
    ( 2, 1, 4, 7 ) 0.9916434540389972, 0.0, 0.008356545961002786;
    ( 2, 1, 4, 8 ) 1.0, 0.0, 0.0;
    ( 2, 1, 4, 9 ) 0.9915492957746479, 0.0028169014084507044, 0.005633802816901409;
    ( 2, 1, 4, 10 ) 1.0, 0.0, 0.0;
    ( 2, 1, 5, 1 ) 1.0, 0.0, 0.0;
    ( 2, 1, 5, 2 ) 0.9971830985915493, 0.0028169014084507044, 0.0;
    ( 2, 1, 5, 3 ) 0.988950276243094, 0.011049723756906077, 0.0;
    ( 2, 1, 5, 4 ) 0.98989898989899, 0.0, 0.010101010101010102;
    ( 2, 1, 5, 5 ) 0.9978586723768736, 0.0, 0.0021413276231263384;
    ( 2, 1, 5, 6 ) 0.96875, 0.0, 0.03125;
    ( 2, 1, 5, 7 ) 0.9934640522875817, 0.0, 0.006535947712418301;
    ( 2, 1, 5, 8 ) 1.0, 0.0, 0.0;
    ( 2, 1, 5, 9 ) 0.9952941176470588, 0.0, 0.004705882352941176;
    ( 2, 1, 5, 10 ) 0.9923664122137404, 0.0, 0.007633587786259542;
    ( 2, 1, 6, 1 ) 0.9583333333333334, 0.041666666666666664, 0.0;
    ( 2, 1, 6, 2 ) 1.0, 0.0, 0.0;
    ( 2, 1, 6, 3 ) 1.0, 0.0, 0.0;
    ( 2, 1, 6, 4 ) 0.9897959183673469, 0.0, 0.01020408163265306;
    ( 2, 1, 6, 5 ) 1.0, 0.0, 0.0;
    ( 2, 1, 6, 6 ) 1.0, 0.0, 0.0;
    ( 2, 1, 6, 7 ) 0.9759036144578314, 0.0, 0.024096385542168676;
    ( 2, 1, 6, 8 ) 1.0, 0.0, 0.0;
    ( 2, 1, 6, 9 ) 0.9928825622775801, 0.0, 0.0071174377224199285;
    ( 2, 1, 6, 10 ) 1.0, 0.0, 0.0;
    ( 3, 0, 1, 1 ) 0.996328029375765, 0.0007343941248470012, 0.002937576499388005;
    ( 3, 0, 1, 2 ) 0.9936066190297104, 0.0004512974802557352, 0.005942083490033848;
    ( 3, 0, 1, 3 ) 0.9936196207973211, 0.0010860219919453368, 0.005294357210733517;
    ( 3, 0, 1, 4 ) 0.9905673320985113, 0.0009947177059751663, 0.00843795019551348;
    ( 3, 0, 1, 5 ) 0.9877156992880415, 0.0013515144201761795, 0.01093278629178231;
    ( 3, 0, 1, 6 ) 0.9760025260498895, 0.0006315124723713293, 0.023365961477739186;
    ( 3, 0, 1, 7 ) 0.9788465586192381, 0.0011576510208377185, 0.019995790359924225;
    ( 3, 0, 1, 8 ) 0.9763313609467456, 0.005917159763313609, 0.01775147928994083;
    ( 3, 0, 1, 9 ) 0.9731147540983607, 0.002185792349726776, 0.024699453551912567;
    ( 3, 0, 1, 10 ) 0.968944099378882, 0.006211180124223602, 0.024844720496894408;
    ( 3, 0, 2, 1 ) 0.991701244813278, 0.002074688796680498, 0.006224066390041493;
    ( 3, 0, 2, 2 ) 0.9901229025197823, 0.001066277568887143, 0.008810819911330602;
    ( 3, 0, 2, 3 ) 0.986857825567503, 0.0010318236124687737, 0.012110350820028239;
    ( 3, 0, 2, 4 ) 0.9824532900081234, 0.0021770917952883832, 0.01536961819658814;
    ( 3, 0, 2, 5 ) 0.975547044968265, 0.00303863926497294, 0.021414315766761963;
    ( 3, 0, 2, 6 ) 0.9661807580174927, 0.003887269193391642, 0.029931972789115645;
    ( 3, 0, 2, 7 ) 0.9586866432897673, 0.005036659228562321, 0.03627669748167039;
    ( 3, 0, 2, 8 ) 0.9461766889383816, 0.01002227171492205, 0.04380103934669636;
    ( 3, 0, 2, 9 ) 0.9569550466497031, 0.008163698049194233, 0.03488125530110263;
    ( 3, 0, 2, 10 ) 0.9452679589509693, 0.013683010262257697, 0.04104903078677309;
    ( 3, 0, 3, 1 ) 0.9912587412587412, 0.0, 0.008741258741258742;
    ( 3, 0, 3, 2 ) 0.9725803522789177, 0.0019974577810059923, 0.025422189940076268;
    ( 3, 0, 3, 3 ) 0.9796235537903644, 0.0013814539803142809, 0.01899499222932136;
    ( 3, 0, 3, 4 ) 0.9674634263330402, 0.0035174674234551124, 0.029019106243504678;
    ( 3, 0, 3, 5 ) 0.9637042303590473, 0.0036260220405261285, 0.03266974760042659;
    ( 3, 0, 3, 6 ) 0.9345018450184502, 0.004920049200492005, 0.06057810578105781;
    ( 3, 0, 3, 7 ) 0.9446174810200506, 0.003893322951138797, 0.05148919602881059;
    ( 3, 0, 3, 8 ) 0.9351578947368421, 0.006736842105263158, 0.058105263157894736;
    ( 3, 0, 3, 9 ) 0.9458366108551522, 0.008427913248679628, 0.04573547589616811;
    ( 3, 0, 3, 10 ) 0.9318377911993098, 0.010353753235547885, 0.057808455565142365;
    ( 3, 0, 4, 1 ) 0.983739837398374, 0.0, 0.016260162601626018;
    ( 3, 0, 4, 2 ) 0.9947643979057592, 0.0017452006980802793, 0.0034904013961605585;
    ( 3, 0, 4, 3 ) 0.9904610492845787, 0.001589825119236884, 0.00794912559618442;
    ( 3, 0, 4, 4 ) 0.9927760577915377, 0.0010319917440660474, 0.006191950464396285;
    ( 3, 0, 4, 5 ) 0.9821428571428571, 0.004008746355685131, 0.013848396501457727;
    ( 3, 0, 4, 6 ) 0.9848866498740554, 0.0025188916876574307, 0.012594458438287154;
    ( 3, 0, 4, 7 ) 0.988009592326139, 0.0015987210231814548, 0.010391686650679457;
    ( 3, 0, 4, 8 ) 0.9788359788359788, 0.0026455026455026454, 0.018518518518518517;
    ( 3, 0, 4, 9 ) 0.9776763064434297, 0.0060882800608828, 0.016235413495687467;
    ( 3, 0, 4, 10 ) 0.9625, 0.01875, 0.01875;
    ( 3, 0, 5, 1 ) 0.9803921568627451, 0.0, 0.0196078431372549;
    ( 3, 0, 5, 2 ) 1.0, 0.0, 0.0;
    ( 3, 0, 5, 3 ) 0.9906542056074766, 0.0, 0.009345794392523364;
    ( 3, 0, 5, 4 ) 0.9943019943019943, 0.0, 0.005698005698005698;
    ( 3, 0, 5, 5 ) 0.9923518164435946, 0.0, 0.0076481835564053535;
    ( 3, 0, 5, 6 ) 1.0, 0.0, 0.0;
    ( 3, 0, 5, 7 ) 0.9877551020408163, 0.0, 0.012244897959183673;
    ( 3, 0, 5, 8 ) 0.9848484848484849, 0.0, 0.015151515151515152;
    ( 3, 0, 5, 9 ) 0.9930555555555556, 0.0, 0.006944444444444444;
    ( 3, 0, 5, 10 ) 1.0, 0.0, 0.0;
    ( 3, 0, 6, 1 ) 1.0, 0.0, 0.0;
    ( 3, 0, 6, 2 ) 0.9807692307692307, 0.019230769230769232, 0.0;
    ( 3, 0, 6, 3 ) 0.991869918699187, 0.0, 0.008130081300813009;
    ( 3, 0, 6, 4 ) 1.0, 0.0, 0.0;
    ( 3, 0, 6, 5 ) 0.9869565217391304, 0.0, 0.013043478260869565;
    ( 3, 0, 6, 6 ) 0.9285714285714286, 0.0, 0.07142857142857142;
    ( 3, 0, 6, 7 ) 0.9552238805970149, 0.029850746268656716, 0.014925373134328358;
    ( 3, 0, 6, 8 ) 1.0, 0.0, 0.0;
    ( 3, 0, 6, 9 ) 1.0, 0.0, 0.0;
    ( 3, 0, 6, 10 ) 1.0, 0.0, 0.0;
    ( 3, 1, 1, 1 ) 1.0, 0.0, 0.0;
    ( 3, 1, 1, 2 ) 1.0, 0.0, 0.0;
    ( 3, 1, 1, 3 ) 1.0, 0.0, 0.0;
    ( 3, 1, 1, 4 ) 1.0, 0.0, 0.0;
    ( 3, 1, 1, 5 ) 1.0, 0.0, 0.0;
    ( 3, 1, 1, 6 ) 1.0, 0.0, 0.0;
    ( 3, 1, 1, 7 ) 1.0, 0.0, 0.0;
    ( 3, 1, 1, 8 ) 1.0, 0.0, 0.0;
    ( 3, 1, 1, 9 ) 1.0, 0.0, 0.0;
    ( 3, 1, 1, 10 ) 1.0, 0.0, 0.0;
    ( 3, 1, 2, 1 ) 1.0, 0.0, 0.0;
    ( 3, 1, 2, 2 ) 1.0, 0.0, 0.0;
    ( 3, 1, 2, 3 ) 1.0, 0.0, 0.0;
    ( 3, 1, 2, 4 ) 1.0, 0.0, 0.0;
    ( 3, 1, 2, 5 ) 1.0, 0.0, 0.0;
    ( 3, 1, 2, 6 ) 1.0, 0.0, 0.0;
    ( 3, 1, 2, 7 ) 1.0, 0.0, 0.0;
    ( 3, 1, 2, 8 ) 1.0, 0.0, 0.0;
    ( 3, 1, 2, 9 ) 1.0, 0.0, 0.0;
    ( 3, 1, 2, 10 ) 1.0, 0.0, 0.0;
    ( 3, 1, 3, 1 ) 1.0, 0.0, 0.0;
    ( 3, 1, 3, 2 ) 1.0, 0.0, 0.0;
    ( 3, 1, 3, 3 ) 1.0, 0.0, 0.0;
    ( 3, 1, 3, 4 ) 1.0, 0.0, 0.0;
    ( 3, 1, 3, 5 ) 1.0, 0.0, 0.0;
    ( 3, 1, 3, 6 ) 1.0, 0.0, 0.0;
    ( 3, 1, 3, 7 ) 1.0, 0.0, 0.0;
    ( 3, 1, 3, 8 ) 1.0, 0.0, 0.0;
    ( 3, 1, 3, 9 ) 1.0, 0.0, 0.0;
    ( 3, 1, 3, 10 ) 1.0, 0.0, 0.0;
    ( 3, 1, 4, 1 ) 1.0, 0.0, 0.0;
    ( 3, 1, 4, 2 ) 1.0, 0.0, 0.0;
    ( 3, 1, 4, 3 ) 1.0, 0.0, 0.0;
    ( 3, 1, 4, 4 ) 1.0, 0.0, 0.0;
    ( 3, 1, 4, 5 ) 1.0, 0.0, 0.0;
    ( 3, 1, 4, 6 ) 1.0, 0.0, 0.0;
    ( 3, 1, 4, 7 ) 1.0, 0.0, 0.0;
    ( 3, 1, 4, 8 ) 1.0, 0.0, 0.0;
    ( 3, 1, 4, 9 ) 1.0, 0.0, 0.0;
    ( 3, 1, 4, 10 ) 1.0, 0.0, 0.0;
    ( 3, 1, 5, 1 ) 1.0, 0.0, 0.0;
    ( 3, 1, 5, 2 ) 1.0, 0.0, 0.0;
    ( 3, 1, 5, 3 ) 1.0, 0.0, 0.0;
    ( 3, 1, 5, 4 ) 1.0, 0.0, 0.0;
    ( 3, 1, 5, 5 ) 1.0, 0.0, 0.0;
    ( 3, 1, 5, 6 ) 1.0, 0.0, 0.0;
    ( 3, 1, 5, 7 ) 1.0, 0.0, 0.0;
    ( 3, 1, 5, 8 ) 0.3333333333333333, 0.3333333333333333, 0.3333333333333333;
    ( 3, 1, 5, 9 ) 1.0, 0.0, 0.0;
    ( 3, 1, 5, 10 ) 0.3333333333333333, 0.3333333333333333, 0.3333333333333333;
    ( 3, 1, 6, 1 ) 1.0, 0.0, 0.0;
    ( 3, 1, 6, 2 ) 1.0, 0.0, 0.0;
    ( 3, 1, 6, 3 ) 1.0, 0.0, 0.0;
    ( 3, 1, 6, 4 ) 1.0, 0.0, 0.0;
    ( 3, 1, 6, 5 ) 1.0, 0.0, 0.0;
    ( 3, 1, 6, 6 ) 1.0, 0.0, 0.0;
    ( 3, 1, 6, 7 ) 0.3333333333333333, 0.3333333333333333, 0.3333333333333333;
    ( 3, 1, 6, 8 ) 0.3333333333333333, 0.3333333333333333, 0.3333333333333333;
    ( 3, 1, 6, 9 ) 1.0, 0.0, 0.0;
    ( 3, 1, 6, 10 ) 1.0, 0.0, 0.0;
    ( 4, 0, 1, 1 ) 0.997550620509471, 0.0014696276943174395, 0.0009797517962116264;
    ( 4, 0, 1, 2 ) 0.9969120608637279, 0.0013425822331617813, 0.0017453569031103155;
    ( 4, 0, 1, 3 ) 0.9964164466239155, 0.0005029548598013328, 0.0030805985162831637;
    ( 4, 0, 1, 4 ) 0.993536340132146, 0.0010772766446423441, 0.005386383223211721;
    ( 4, 0, 1, 5 ) 0.9941876367614879, 0.0010257111597374179, 0.004786652078774617;
    ( 4, 0, 1, 6 ) 0.9989939637826962, 0.001006036217303823, 0.0;
    ( 4, 0, 1, 7 ) 0.9903894790085989, 0.0020232675771370764, 0.007587253414264037;
    ( 4, 0, 1, 8 ) 0.9971830985915493, 0.0, 0.0028169014084507044;
    ( 4, 0, 1, 9 ) 0.9917883211678832, 0.0018248175182481751, 0.006386861313868613;
    ( 4, 0, 1, 10 ) 1.0, 0.0, 0.0;
    ( 4, 0, 2, 1 ) 0.9822041835778957, 0.009990633780830472, 0.007805182641273806;
    ( 4, 0, 2, 2 ) 0.9887009664582149, 0.006893121091529278, 0.004405912450255827;
    ( 4, 0, 2, 3 ) 0.988565228278107, 0.005759118604457057, 0.0056756531174359404;
    ( 4, 0, 2, 4 ) 0.987221396731055, 0.007726597325408618, 0.005052005943536404;
    ( 4, 0, 2, 5 ) 0.9858575614153707, 0.006366914581924724, 0.00777552400270453;
    ( 4, 0, 2, 6 ) 0.9892183288409704, 0.006738544474393531, 0.004043126684636119;
    ( 4, 0, 2, 7 ) 0.9861155957378108, 0.010009686793671296, 0.0038747174685179204;
    ( 4, 0, 2, 8 ) 0.9776536312849162, 0.01303538175046555, 0.00931098696461825;
    ( 4, 0, 2, 9 ) 0.9903943377148635, 0.005055611729019211, 0.00455005055611729;
    ( 4, 0, 2, 10 ) 0.965034965034965, 0.013986013986013986, 0.02097902097902098;
    ( 4, 0, 3, 1 ) 0.9517958412098299, 0.023629489603024575, 0.024574669187145556;
    ( 4, 0, 3, 2 ) 0.9698067632850241, 0.01352657004830918, 0.016666666666666666;
    ( 4, 0, 3, 3 ) 0.9583687340696686, 0.012744265080713678, 0.02888700084961767;
    ( 4, 0, 3, 4 ) 0.9624952162265595, 0.016838882510524303, 0.02066590126291619;
    ( 4, 0, 3, 5 ) 0.9646607203341989, 0.012645365247826577, 0.022693914417974484;
    ( 4, 0, 3, 6 ) 0.9771598808341608, 0.011916583912611719, 0.010923535253227408;
    ( 4, 0, 3, 7 ) 0.9788018433179724, 0.010138248847926268, 0.011059907834101382;
    ( 4, 0, 3, 8 ) 0.9653979238754326, 0.01903114186851211, 0.015570934256055362;
    ( 4, 0, 3, 9 ) 0.9781368821292775, 0.012832699619771864, 0.00903041825095057;
    ( 4, 0, 3, 10 ) 0.9788135593220338, 0.01694915254237288, 0.00423728813559322;
    ( 4, 0, 4, 1 ) 1.0, 0.0, 0.0;
    ( 4, 0, 4, 2 ) 0.9947089947089947, 0.0, 0.005291005291005291;
    ( 4, 0, 4, 3 ) 0.9875, 0.004166666666666667, 0.008333333333333333;
    ( 4, 0, 4, 4 ) 0.9877408056042032, 0.008756567425569177, 0.0035026269702276708;
    ( 4, 0, 4, 5 ) 0.9878504672897196, 0.007476635514018692, 0.004672897196261682;
    ( 4, 0, 4, 6 ) 0.9898477157360406, 0.01015228426395939, 0.0;
    ( 4, 0, 4, 7 ) 0.9887640449438202, 0.0056179775280898875, 0.0056179775280898875;
    ( 4, 0, 4, 8 ) 0.9828571428571429, 0.017142857142857144, 0.0;
    ( 4, 0, 4, 9 ) 0.9914163090128756, 0.005722460658082976, 0.002861230329041488;
    ( 4, 0, 4, 10 ) 0.9285714285714286, 0.04081632653061224, 0.030612244897959183;
    ( 4, 0, 5, 1 ) 1.0, 0.0, 0.0;
    ( 4, 0, 5, 2 ) 0.9943502824858758, 0.005649717514124294, 0.0;
    ( 4, 0, 5, 3 ) 0.983402489626556, 0.008298755186721992, 0.008298755186721992;
    ( 4, 0, 5, 4 ) 0.9777777777777777, 0.0, 0.022222222222222223;
    ( 4, 0, 5, 5 ) 0.991869918699187, 0.0040650406504065045, 0.0040650406504065045;
    ( 4, 0, 5, 6 ) 0.9861111111111112, 0.013888888888888888, 0.0;
    ( 4, 0, 5, 7 ) 0.990990990990991, 0.009009009009009009, 0.0;
    ( 4, 0, 5, 8 ) 1.0, 0.0, 0.0;
    ( 4, 0, 5, 9 ) 1.0, 0.0, 0.0;
    ( 4, 0, 5, 10 ) 1.0, 0.0, 0.0;
    ( 4, 0, 6, 1 ) 1.0, 0.0, 0.0;
    ( 4, 0, 6, 2 ) 1.0, 0.0, 0.0;
    ( 4, 0, 6, 3 ) 0.983739837398374, 0.016260162601626018, 0.0;
    ( 4, 0, 6, 4 ) 0.9940119760479041, 0.0, 0.005988023952095809;
    ( 4, 0, 6, 5 ) 0.986013986013986, 0.013986013986013986, 0.0;
    ( 4, 0, 6, 6 ) 1.0, 0.0, 0.0;
    ( 4, 0, 6, 7 ) 1.0, 0.0, 0.0;
    ( 4, 0, 6, 8 ) 1.0, 0.0, 0.0;
    ( 4, 0, 6, 9 ) 1.0, 0.0, 0.0;
    ( 4, 0, 6, 10 ) 1.0, 0.0, 0.0;
    ( 4, 1, 1, 1 ) 1.0, 0.0, 0.0;
    ( 4, 1, 1, 2 ) 1.0, 0.0, 0.0;
    ( 4, 1, 1, 3 ) 1.0, 0.0, 0.0;
    ( 4, 1, 1, 4 ) 1.0, 0.0, 0.0;
    ( 4, 1, 1, 5 ) 1.0, 0.0, 0.0;
    ( 4, 1, 1, 6 ) 1.0, 0.0, 0.0;
    ( 4, 1, 1, 7 ) 1.0, 0.0, 0.0;
    ( 4, 1, 1, 8 ) 1.0, 0.0, 0.0;
    ( 4, 1, 1, 9 ) 1.0, 0.0, 0.0;
    ( 4, 1, 1, 10 ) 1.0, 0.0, 0.0;
    ( 4, 1, 2, 1 ) 1.0, 0.0, 0.0;
    ( 4, 1, 2, 2 ) 1.0, 0.0, 0.0;
    ( 4, 1, 2, 3 ) 1.0, 0.0, 0.0;
    ( 4, 1, 2, 4 ) 1.0, 0.0, 0.0;
    ( 4, 1, 2, 5 ) 1.0, 0.0, 0.0;
    ( 4, 1, 2, 6 ) 1.0, 0.0, 0.0;
    ( 4, 1, 2, 7 ) 1.0, 0.0, 0.0;
    ( 4, 1, 2, 8 ) 1.0, 0.0, 0.0;
    ( 4, 1, 2, 9 ) 1.0, 0.0, 0.0;
    ( 4, 1, 2, 10 ) 1.0, 0.0, 0.0;
    ( 4, 1, 3, 1 ) 1.0, 0.0, 0.0;
    ( 4, 1, 3, 2 ) 1.0, 0.0, 0.0;
    ( 4, 1, 3, 3 ) 1.0, 0.0, 0.0;
    ( 4, 1, 3, 4 ) 1.0, 0.0, 0.0;
    ( 4, 1, 3, 5 ) 1.0, 0.0, 0.0;
    ( 4, 1, 3, 6 ) 1.0, 0.0, 0.0;
    ( 4, 1, 3, 7 ) 1.0, 0.0, 0.0;
    ( 4, 1, 3, 8 ) 1.0, 0.0, 0.0;
    ( 4, 1, 3, 9 ) 1.0, 0.0, 0.0;
    ( 4, 1, 3, 10 ) 1.0, 0.0, 0.0;
    ( 4, 1, 4, 1 ) 1.0, 0.0, 0.0;
    ( 4, 1, 4, 2 ) 1.0, 0.0, 0.0;
    ( 4, 1, 4, 3 ) 1.0, 0.0, 0.0;
    ( 4, 1, 4, 4 ) 1.0, 0.0, 0.0;
    ( 4, 1, 4, 5 ) 1.0, 0.0, 0.0;
    ( 4, 1, 4, 6 ) 1.0, 0.0, 0.0;
    ( 4, 1, 4, 7 ) 1.0, 0.0, 0.0;
    ( 4, 1, 4, 8 ) 1.0, 0.0, 0.0;
    ( 4, 1, 4, 9 ) 1.0, 0.0, 0.0;
    ( 4, 1, 4, 10 ) 1.0, 0.0, 0.0;
    ( 4, 1, 5, 1 ) 0.3333333333333333, 0.3333333333333333, 0.3333333333333333;
    ( 4, 1, 5, 2 ) 1.0, 0.0, 0.0;
    ( 4, 1, 5, 3 ) 1.0, 0.0, 0.0;
    ( 4, 1, 5, 4 ) 1.0, 0.0, 0.0;
    ( 4, 1, 5, 5 ) 1.0, 0.0, 0.0;
    ( 4, 1, 5, 6 ) 1.0, 0.0, 0.0;
    ( 4, 1, 5, 7 ) 1.0, 0.0, 0.0;
    ( 4, 1, 5, 8 ) 1.0, 0.0, 0.0;
    ( 4, 1, 5, 9 ) 1.0, 0.0, 0.0;
    ( 4, 1, 5, 10 ) 1.0, 0.0, 0.0;
    ( 4, 1, 6, 1 ) 1.0, 0.0, 0.0;
    ( 4, 1, 6, 2 ) 1.0, 0.0, 0.0;
    ( 4, 1, 6, 3 ) 1.0, 0.0, 0.0;
    ( 4, 1, 6, 4 ) 1.0, 0.0, 0.0;
    ( 4, 1, 6, 5 ) 1.0, 0.0, 0.0;
    ( 4, 1, 6, 6 ) 0.3333333333333333, 0.3333333333333333, 0.3333333333333333;
    ( 4, 1, 6, 7 ) 1.0, 0.0, 0.0;
    ( 4, 1, 6, 8 ) 1.0, 0.0, 0.0;
    ( 4, 1, 6, 9 ) 1.0, 0.0, 0.0;
    ( 4, 1, 6, 10 ) 0.3333333333333333, 0.3333333333333333, 0.3333333333333333;
    ( 5, 0, 1, 1 ) 0.939802802283342, 0.010897768552153606, 0.04929942916450441;
    ( 5, 0, 1, 2 ) 0.9786087612479121, 0.007112452179535535, 0.014278786572552401;
    ( 5, 0, 1, 3 ) 0.982688456818035, 0.005878173244622441, 0.01143336993734255;
    ( 5, 0, 1, 4 ) 0.9756881490028021, 0.008900609856601285, 0.01541124114059667;
    ( 5, 0, 1, 5 ) 0.9636470399829179, 0.012598088933966797, 0.02375487108311536;
    ( 5, 0, 1, 6 ) 0.9484463276836158, 0.014124293785310734, 0.03742937853107345;
    ( 5, 0, 1, 7 ) 0.9358461831334476, 0.02132114981915096, 0.04283266704740148;
    ( 5, 0, 1, 8 ) 0.9038461538461539, 0.039663461538461536, 0.056490384615384616;
    ( 5, 0, 1, 9 ) 0.9154401926679154, 0.018464008563018466, 0.0660957987690661;
    ( 5, 0, 1, 10 ) 0.8823529411764706, 0.03225806451612903, 0.08538899430740038;
    ( 5, 0, 2, 1 ) 0.9698149951314509, 0.005842259006815969, 0.024342745861733205;
    ( 5, 0, 2, 2 ) 0.983007929632838, 0.005197574465249551, 0.011794495901912441;
    ( 5, 0, 2, 3 ) 0.9765054879857609, 0.009136754672204093, 0.014357757342035005;
    ( 5, 0, 2, 4 ) 0.9647593263892076, 0.012710503372642592, 0.022530170238149863;
    ( 5, 0, 2, 5 ) 0.9493285093497453, 0.019879269323790236, 0.0307922213264644;
    ( 5, 0, 2, 6 ) 0.9368116988626106, 0.019859180357465245, 0.04332912077992417;
    ( 5, 0, 2, 7 ) 0.9203719437364297, 0.023930897762673462, 0.05569715850089682;
    ( 5, 0, 2, 8 ) 0.9085520745131245, 0.03873835732430144, 0.05270956816257409;
    ( 5, 0, 2, 9 ) 0.8997902799307012, 0.033828759004285586, 0.06638096106501322;
    ( 5, 0, 2, 10 ) 0.8723897911832946, 0.050012889920082494, 0.07759731889662284;
    ( 5, 0, 3, 1 ) 0.9063032367972743, 0.02555366269165247, 0.06814310051107325;
    ( 5, 0, 3, 2 ) 0.9278463648834019, 0.02551440329218107, 0.04663923182441701;
    ( 5, 0, 3, 3 ) 0.9261398803383536, 0.022281823808541365, 0.05157829585310501;
    ( 5, 0, 3, 4 ) 0.905417406749556, 0.03010657193605684, 0.0644760213143872;
    ( 5, 0, 3, 5 ) 0.888449568899546, 0.03760012244273252, 0.07395030865772155;
    ( 5, 0, 3, 6 ) 0.864429136743368, 0.04396892862377253, 0.09160193463285944;
    ( 5, 0, 3, 7 ) 0.8506013126446375, 0.043590424522933345, 0.10580826283242915;
    ( 5, 0, 3, 8 ) 0.8487231979312574, 0.05322702295011313, 0.09804977911862946;
    ( 5, 0, 3, 9 ) 0.8280191705945261, 0.05582841525725829, 0.11615241414821563;
    ( 5, 0, 3, 10 ) 0.8021852078239609, 0.07090464547677261, 0.1269101466992665;
    ( 5, 0, 4, 1 ) 0.8292682926829268, 0.07926829268292683, 0.09146341463414634;
    ( 5, 0, 4, 2 ) 0.8583916083916084, 0.05244755244755245, 0.08916083916083917;
    ( 5, 0, 4, 3 ) 0.8623481781376519, 0.04048582995951417, 0.09716599190283401;
    ( 5, 0, 4, 4 ) 0.8312917594654788, 0.04621380846325167, 0.12249443207126949;
    ( 5, 0, 4, 5 ) 0.828972182932579, 0.05304101838755304, 0.11798679867986799;
    ( 5, 0, 4, 6 ) 0.8051575931232091, 0.05959885386819484, 0.135243553008596;
    ( 5, 0, 4, 7 ) 0.7865961199294532, 0.05440238773572107, 0.15900149233482566;
    ( 5, 0, 4, 8 ) 0.7855072463768116, 0.0678743961352657, 0.1466183574879227;
    ( 5, 0, 4, 9 ) 0.7849757963306042, 0.06953325763461424, 0.14549094603478158;
    ( 5, 0, 4, 10 ) 0.7790830129574255, 0.07446959988608856, 0.14644738715648584;
    ( 5, 0, 5, 1 ) 0.8596491228070176, 0.05263157894736842, 0.08771929824561403;
    ( 5, 0, 5, 2 ) 0.8461538461538461, 0.038461538461538464, 0.11538461538461539;
    ( 5, 0, 5, 3 ) 0.896414342629482, 0.027888446215139442, 0.07569721115537849;
    ( 5, 0, 5, 4 ) 0.8279932546374368, 0.04384485666104553, 0.1281618887015177;
    ( 5, 0, 5, 5 ) 0.7798719772403983, 0.051209103840682786, 0.16891891891891891;
    ( 5, 0, 5, 6 ) 0.805439330543933, 0.04184100418410042, 0.15271966527196654;
    ( 5, 0, 5, 7 ) 0.7608695652173914, 0.04891304347826087, 0.19021739130434784;
    ( 5, 0, 5, 8 ) 0.7702265372168284, 0.07055016181229773, 0.15922330097087378;
    ( 5, 0, 5, 9 ) 0.7706697312136883, 0.07559215986720297, 0.15373810891910872;
    ( 5, 0, 5, 10 ) 0.7600998098859315, 0.08388783269961977, 0.15601235741444866;
    ( 5, 0, 6, 1 ) 0.92, 0.0, 0.08;
    ( 5, 0, 6, 2 ) 0.8157894736842105, 0.09210526315789473, 0.09210526315789473;
    ( 5, 0, 6, 3 ) 0.8888888888888888, 0.037037037037037035, 0.07407407407407407;
    ( 5, 0, 6, 4 ) 0.8467153284671532, 0.029197080291970802, 0.12408759124087591;
    ( 5, 0, 6, 5 ) 0.7698019801980198, 0.08250825082508251, 0.1476897689768977;
    ( 5, 0, 6, 6 ) 0.8333333333333334, 0.046875, 0.11979166666666667;
    ( 5, 0, 6, 7 ) 0.7453754080522307, 0.0544069640914037, 0.20021762785636563;
    ( 5, 0, 6, 8 ) 0.7729988052568698, 0.07885304659498207, 0.14814814814814814;
    ( 5, 0, 6, 9 ) 0.7531397174254317, 0.07927786499215071, 0.16758241758241757;
    ( 5, 0, 6, 10 ) 0.7648590021691974, 0.08141720896601591, 0.1537237888647867;
    ( 5, 1, 1, 1 ) 0.9950035688793719, 0.004996431120628123, 0.0;
    ( 5, 1, 1, 2 ) 0.9964671801031584, 0.003532819896841659, 0.0;
    ( 5, 1, 1, 3 ) 0.9973873968021737, 0.0025080990699132616, 0.00010450412791305256;
    ( 5, 1, 1, 4 ) 0.9985453034081463, 0.0014546965918536992, 0.0;
    ( 5, 1, 1, 5 ) 0.9992201208812634, 0.0003899395593682979, 0.0003899395593682979;
    ( 5, 1, 1, 6 ) 1.0, 0.0, 0.0;
    ( 5, 1, 1, 7 ) 0.9986789960369881, 0.0, 0.001321003963011889;
    ( 5, 1, 1, 8 ) 0.9930555555555556, 0.0, 0.006944444444444444;
    ( 5, 1, 1, 9 ) 0.9944954128440368, 0.0, 0.005504587155963303;
    ( 5, 1, 1, 10 ) 1.0, 0.0, 0.0;
    ( 5, 1, 2, 1 ) 0.9925187032418953, 0.0024937655860349127, 0.004987531172069825;
    ( 5, 1, 2, 2 ) 0.9976905311778291, 0.0015988630307337006, 0.0007106057914372002;
    ( 5, 1, 2, 3 ) 0.9983525535420099, 0.00041186161449752884, 0.0012355848434925864;
    ( 5, 1, 2, 4 ) 0.9958071278825996, 0.0005989817310572028, 0.0035938903863432167;
    ( 5, 1, 2, 5 ) 0.9925777331995987, 0.0010030090270812437, 0.0064192577733199595;
    ( 5, 1, 2, 6 ) 0.981651376146789, 0.0, 0.01834862385321101;
    ( 5, 1, 2, 7 ) 0.9794745484400657, 0.0016420361247947454, 0.018883415435139574;
    ( 5, 1, 2, 8 ) 0.9618055555555556, 0.006944444444444444, 0.03125;
    ( 5, 1, 2, 9 ) 0.97677793904209, 0.005805515239477504, 0.01741654571843251;
    ( 5, 1, 2, 10 ) 0.9728813559322034, 0.013559322033898305, 0.013559322033898305;
    ( 5, 1, 3, 1 ) 0.9902912621359223, 0.009708737864077669, 0.0;
    ( 5, 1, 3, 2 ) 0.9908722109533469, 0.004056795131845842, 0.005070993914807302;
    ( 5, 1, 3, 3 ) 0.9940688018979834, 0.0011862396204033216, 0.004744958481613286;
    ( 5, 1, 3, 4 ) 0.9821428571428571, 0.005952380952380952, 0.011904761904761904;
    ( 5, 1, 3, 5 ) 0.9609151572926596, 0.010486177311725452, 0.028598665395614873;
    ( 5, 1, 3, 6 ) 0.9481481481481482, 0.011111111111111112, 0.040740740740740744;
    ( 5, 1, 3, 7 ) 0.9434599156118143, 0.018565400843881856, 0.0379746835443038;
    ( 5, 1, 3, 8 ) 0.9212962962962963, 0.018518518518518517, 0.06018518518518518;
    ( 5, 1, 3, 9 ) 0.9397889509621353, 0.023898199875853506, 0.036312849162011177;
    ( 5, 1, 3, 10 ) 0.9243353783231084, 0.03987730061349693, 0.03578732106339468;
    ( 5, 1, 4, 1 ) 1.0, 0.0, 0.0;
    ( 5, 1, 4, 2 ) 0.9907407407407407, 0.004629629629629629, 0.004629629629629629;
    ( 5, 1, 4, 3 ) 0.987603305785124, 0.0, 0.012396694214876033;
    ( 5, 1, 4, 4 ) 0.9278350515463918, 0.03608247422680412, 0.03608247422680412;
    ( 5, 1, 4, 5 ) 0.8948106591865358, 0.05049088359046283, 0.0546984572230014;
    ( 5, 1, 4, 6 ) 0.9236111111111112, 0.013888888888888888, 0.0625;
    ( 5, 1, 4, 7 ) 0.873546511627907, 0.0625, 0.06395348837209303;
    ( 5, 1, 4, 8 ) 0.8767908309455588, 0.05157593123209169, 0.07163323782234957;
    ( 5, 1, 4, 9 ) 0.8969206680584552, 0.061586638830897704, 0.04149269311064718;
    ( 5, 1, 4, 10 ) 0.8969512195121951, 0.06341463414634146, 0.039634146341463415;
    ( 5, 1, 5, 1 ) 1.0, 0.0, 0.0;
    ( 5, 1, 5, 2 ) 0.9404761904761905, 0.023809523809523808, 0.03571428571428571;
    ( 5, 1, 5, 3 ) 0.972972972972973, 0.013513513513513514, 0.013513513513513514;
    ( 5, 1, 5, 4 ) 0.95, 0.016666666666666666, 0.03333333333333333;
    ( 5, 1, 5, 5 ) 0.9144385026737968, 0.029411764705882353, 0.05614973262032086;
    ( 5, 1, 5, 6 ) 0.92, 0.013333333333333334, 0.06666666666666667;
    ( 5, 1, 5, 7 ) 0.9210526315789473, 0.022556390977443608, 0.05639097744360902;
    ( 5, 1, 5, 8 ) 0.8560885608856088, 0.05166051660516605, 0.09225092250922509;
    ( 5, 1, 5, 9 ) 0.8993518871521159, 0.045749142203583684, 0.05489897064430042;
    ( 5, 1, 5, 10 ) 0.8936314363143631, 0.03726287262872629, 0.06910569105691057;
    ( 5, 1, 6, 1 ) 0.8823529411764706, 0.0, 0.11764705882352941;
    ( 5, 1, 6, 2 ) 0.9705882352941176, 0.029411764705882353, 0.0;
    ( 5, 1, 6, 3 ) 1.0, 0.0, 0.0;
    ( 5, 1, 6, 4 ) 0.9866666666666667, 0.0, 0.013333333333333334;
    ( 5, 1, 6, 5 ) 0.9659090909090909, 0.015151515151515152, 0.01893939393939394;
    ( 5, 1, 6, 6 ) 0.9285714285714286, 0.023809523809523808, 0.047619047619047616;
    ( 5, 1, 6, 7 ) 0.8972972972972973, 0.02702702702702703, 0.07567567567567568;
    ( 5, 1, 6, 8 ) 0.8967391304347826, 0.03260869565217391, 0.07065217391304347;
    ( 5, 1, 6, 9 ) 0.92265625, 0.034765625, 0.042578125;
    ( 5, 1, 6, 10 ) 0.8986409966024915, 0.057757644394110984, 0.04360135900339751;
    ( 6, 0, 1, 1 ) 0.9989971586160789, 0.0, 0.0010028413839211097;
    ( 6, 0, 1, 2 ) 0.9997141223556318, 0.0, 0.0002858776443682104;
    ( 6, 0, 1, 3 ) 0.9989210573637834, 0.0, 0.001078942636216508;
    ( 6, 0, 1, 4 ) 0.9983164983164983, 0.0, 0.0016835016835016834;
    ( 6, 0, 1, 5 ) 0.9981346763663496, 0.0, 0.0018653236336504384;
    ( 6, 0, 1, 6 ) 0.9975124378109452, 0.0, 0.0024875621890547263;
    ( 6, 0, 1, 7 ) 0.997539975399754, 0.0, 0.0024600246002460025;
    ( 6, 0, 1, 8 ) 1.0, 0.0, 0.0;
    ( 6, 0, 1, 9 ) 1.0, 0.0, 0.0;
    ( 6, 0, 1, 10 ) 1.0, 0.0, 0.0;
    ( 6, 0, 2, 1 ) 1.0, 0.0, 0.0;
    ( 6, 0, 2, 2 ) 0.9989432367149759, 0.0, 0.0010567632850241545;
    ( 6, 0, 2, 3 ) 0.9998212689901698, 0.0, 0.00017873100983020553;
    ( 6, 0, 2, 4 ) 0.9991980753809142, 0.0, 0.0008019246190858059;
    ( 6, 0, 2, 5 ) 0.9989117817759722, 0.0, 0.0010882182240278583;
    ( 6, 0, 2, 6 ) 1.0, 0.0, 0.0;
    ( 6, 0, 2, 7 ) 0.9984591679506933, 0.0, 0.0015408320493066256;
    ( 6, 0, 2, 8 ) 0.9956140350877193, 0.0, 0.0043859649122807015;
    ( 6, 0, 2, 9 ) 0.9986859395532195, 0.0, 0.001314060446780552;
    ( 6, 0, 2, 10 ) 1.0, 0.0, 0.0;
    ( 6, 0, 3, 1 ) 0.9974293059125964, 0.0, 0.002570694087403599;
    ( 6, 0, 3, 2 ) 1.0, 0.0, 0.0;
    ( 6, 0, 3, 3 ) 0.9992125984251968, 0.0, 0.0007874015748031496;
    ( 6, 0, 3, 4 ) 0.99813200498132, 0.0, 0.0018679950186799503;
    ( 6, 0, 3, 5 ) 0.999634636463281, 0.0, 0.00036536353671903543;
    ( 6, 0, 3, 6 ) 0.9969135802469136, 0.0, 0.0030864197530864196;
    ( 6, 0, 3, 7 ) 0.9987654320987654, 0.0, 0.0012345679012345679;
    ( 6, 0, 3, 8 ) 0.9947368421052631, 0.0, 0.005263157894736842;
    ( 6, 0, 3, 9 ) 0.9971264367816092, 0.0, 0.0028735632183908046;
    ( 6, 0, 3, 10 ) 1.0, 0.0, 0.0;
    ( 6, 0, 4, 1 ) 1.0, 0.0, 0.0;
    ( 6, 0, 4, 2 ) 1.0, 0.0, 0.0;
    ( 6, 0, 4, 3 ) 1.0, 0.0, 0.0;
    ( 6, 0, 4, 4 ) 1.0, 0.0, 0.0;
    ( 6, 0, 4, 5 ) 1.0, 0.0, 0.0;
    ( 6, 0, 4, 6 ) 1.0, 0.0, 0.0;
    ( 6, 0, 4, 7 ) 1.0, 0.0, 0.0;
    ( 6, 0, 4, 8 ) 1.0, 0.0, 0.0;
    ( 6, 0, 4, 9 ) 1.0, 0.0, 0.0;
    ( 6, 0, 4, 10 ) 1.0, 0.0, 0.0;
    ( 6, 0, 5, 1 ) 1.0, 0.0, 0.0;
    ( 6, 0, 5, 2 ) 1.0, 0.0, 0.0;
    ( 6, 0, 5, 3 ) 1.0, 0.0, 0.0;
    ( 6, 0, 5, 4 ) 1.0, 0.0, 0.0;
    ( 6, 0, 5, 5 ) 1.0, 0.0, 0.0;
    ( 6, 0, 5, 6 ) 1.0, 0.0, 0.0;
    ( 6, 0, 5, 7 ) 1.0, 0.0, 0.0;
    ( 6, 0, 5, 8 ) 1.0, 0.0, 0.0;
    ( 6, 0, 5, 9 ) 1.0, 0.0, 0.0;
    ( 6, 0, 5, 10 ) 1.0, 0.0, 0.0;
    ( 6, 0, 6, 1 ) 1.0, 0.0, 0.0;
    ( 6, 0, 6, 2 ) 1.0, 0.0, 0.0;
    ( 6, 0, 6, 3 ) 1.0, 0.0, 0.0;
    ( 6, 0, 6, 4 ) 1.0, 0.0, 0.0;
    ( 6, 0, 6, 5 ) 1.0, 0.0, 0.0;
    ( 6, 0, 6, 6 ) 1.0, 0.0, 0.0;
    ( 6, 0, 6, 7 ) 1.0, 0.0, 0.0;
    ( 6, 0, 6, 8 ) 1.0, 0.0, 0.0;
    ( 6, 0, 6, 9 ) 1.0, 0.0, 0.0;
    ( 6, 0, 6, 10 ) 1.0, 0.0, 0.0;
    ( 6, 1, 1, 1 ) 1.0, 0.0, 0.0;
    ( 6, 1, 1, 2 ) 1.0, 0.0, 0.0;
    ( 6, 1, 1, 3 ) 1.0, 0.0, 0.0;
    ( 6, 1, 1, 4 ) 1.0, 0.0, 0.0;
    ( 6, 1, 1, 5 ) 1.0, 0.0, 0.0;
    ( 6, 1, 1, 6 ) 1.0, 0.0, 0.0;
    ( 6, 1, 1, 7 ) 1.0, 0.0, 0.0;
    ( 6, 1, 1, 8 ) 1.0, 0.0, 0.0;
    ( 6, 1, 1, 9 ) 1.0, 0.0, 0.0;
    ( 6, 1, 1, 10 ) 1.0, 0.0, 0.0;
    ( 6, 1, 2, 1 ) 1.0, 0.0, 0.0;
    ( 6, 1, 2, 2 ) 1.0, 0.0, 0.0;
    ( 6, 1, 2, 3 ) 1.0, 0.0, 0.0;
    ( 6, 1, 2, 4 ) 1.0, 0.0, 0.0;
    ( 6, 1, 2, 5 ) 1.0, 0.0, 0.0;
    ( 6, 1, 2, 6 ) 1.0, 0.0, 0.0;
    ( 6, 1, 2, 7 ) 1.0, 0.0, 0.0;
    ( 6, 1, 2, 8 ) 1.0, 0.0, 0.0;
    ( 6, 1, 2, 9 ) 1.0, 0.0, 0.0;
    ( 6, 1, 2, 10 ) 1.0, 0.0, 0.0;
    ( 6, 1, 3, 1 ) 1.0, 0.0, 0.0;
    ( 6, 1, 3, 2 ) 1.0, 0.0, 0.0;
    ( 6, 1, 3, 3 ) 1.0, 0.0, 0.0;
    ( 6, 1, 3, 4 ) 1.0, 0.0, 0.0;
    ( 6, 1, 3, 5 ) 1.0, 0.0, 0.0;
    ( 6, 1, 3, 6 ) 1.0, 0.0, 0.0;
    ( 6, 1, 3, 7 ) 1.0, 0.0, 0.0;
    ( 6, 1, 3, 8 ) 1.0, 0.0, 0.0;
    ( 6, 1, 3, 9 ) 1.0, 0.0, 0.0;
    ( 6, 1, 3, 10 ) 1.0, 0.0, 0.0;
    ( 6, 1, 4, 1 ) 1.0, 0.0, 0.0;
    ( 6, 1, 4, 2 ) 1.0, 0.0, 0.0;
    ( 6, 1, 4, 3 ) 1.0, 0.0, 0.0;
    ( 6, 1, 4, 4 ) 1.0, 0.0, 0.0;
    ( 6, 1, 4, 5 ) 1.0, 0.0, 0.0;
    ( 6, 1, 4, 6 ) 1.0, 0.0, 0.0;
    ( 6, 1, 4, 7 ) 1.0, 0.0, 0.0;
    ( 6, 1, 4, 8 ) 1.0, 0.0, 0.0;
    ( 6, 1, 4, 9 ) 1.0, 0.0, 0.0;
    ( 6, 1, 4, 10 ) 1.0, 0.0, 0.0;
    ( 6, 1, 5, 1 ) 1.0, 0.0, 0.0;
    ( 6, 1, 5, 2 ) 1.0, 0.0, 0.0;
    ( 6, 1, 5, 3 ) 1.0, 0.0, 0.0;
    ( 6, 1, 5, 4 ) 1.0, 0.0, 0.0;
    ( 6, 1, 5, 5 ) 1.0, 0.0, 0.0;
    ( 6, 1, 5, 6 ) 1.0, 0.0, 0.0;
    ( 6, 1, 5, 7 ) 1.0, 0.0, 0.0;
    ( 6, 1, 5, 8 ) 1.0, 0.0, 0.0;
    ( 6, 1, 5, 9 ) 1.0, 0.0, 0.0;
    ( 6, 1, 5, 10 ) 1.0, 0.0, 0.0;
    ( 6, 1, 6, 1 ) 1.0, 0.0, 0.0;
    ( 6, 1, 6, 2 ) 1.0, 0.0, 0.0;
    ( 6, 1, 6, 3 ) 1.0, 0.0, 0.0;
    ( 6, 1, 6, 4 ) 1.0, 0.0, 0.0;
    ( 6, 1, 6, 5 ) 1.0, 0.0, 0.0;
    ( 6, 1, 6, 6 ) 1.0, 0.0, 0.0;
    ( 6, 1, 6, 7 ) 1.0, 0.0, 0.0;
    ( 6, 1, 6, 8 ) 0.3333333333333333, 0.3333333333333333, 0.3333333333333333;
    ( 6, 1, 6, 9 ) 1.0, 0.0, 0.0;
    ( 6, 1, 6, 10 ) 0.3333333333333333, 0.3333333333333333, 0.3333333333333333;

}
probability ( colegio_jornada | colegio_privado, madre_educacion, presentacion_mcpio_distinto, puntaje ) {
    ( 0, 1, 0, 1 ) 0.0, 0.0, 0.0, 0.625, 0.0, 0.375;
    ( 0, 1, 0, 2 ) 0.0, 0.19230769230769232, 0.0, 0.5, 0.0, 0.3076923076923077;
    ( 0, 1, 0, 3 ) 0.051470588235294115, 0.27941176470588236, 0.07536764705882353, 0.34191176470588236, 0.012867647058823529, 0.23897058823529413;
    ( 0, 1, 0, 4 ) 0.07607919506653683, 0.3296981499513145, 0.0913988964621876, 0.2647841609866926, 0.036871145731905225, 0.2011684518013632;
    ( 0, 1, 0, 5 ) 0.08172129905550786, 0.43633516844285064, 0.14601747563008233, 0.16278599929289359, 0.04687105409364109, 0.12626900348502448;
    ( 0, 1, 0, 6 ) 0.10569105691056911, 0.5311653116531165, 0.17457091237579042, 0.07429990966576333, 0.06097560975609756, 0.053297199638663056;
    ( 0, 1, 0, 7 ) 0.1349206349206349, 0.5543345543345544, 0.19658119658119658, 0.028693528693528692, 0.06593406593406594, 0.019536019536019536;
    ( 0, 1, 0, 8 ) 0.07446808510638298, 0.6276595744680851, 0.2127659574468085, 0.031914893617021274, 0.05319148936170213, 0.0;
    ( 0, 1, 0, 9 ) 0.0, 1.0, 0.0, 0.0, 0.0, 0.0;
    ( 0, 1, 0, 10 ) 0.16666666666666666, 0.16666666666666666, 0.16666666666666666, 0.16666666666666666, 0.16666666666666666, 0.16666666666666666;
    ( 0, 1, 1, 1 ) 0.16666666666666666, 0.16666666666666666, 0.16666666666666666, 0.16666666666666666, 0.16666666666666666, 0.16666666666666666;
    ( 0, 1, 1, 2 ) 0.0, 0.3333333333333333, 0.0, 0.3333333333333333, 0.0, 0.3333333333333333;
    ( 0, 1, 1, 3 ) 0.08917197452229299, 0.4267515923566879, 0.03821656050955414, 0.22929936305732485, 0.03184713375796178, 0.18471337579617833;
    ( 0, 1, 1, 4 ) 0.0726321905868681, 0.4592291303505714, 0.047840402866550454, 0.1652140228549293, 0.09974820840596553, 0.15533604493511524;
    ( 0, 1, 1, 5 ) 0.0725944349448158, 0.5255712731229597, 0.053007927871910464, 0.10321778330483444, 0.14643245764029225, 0.09917612311518731;
    ( 0, 1, 1, 6 ) 0.0992430613961312, 0.5698065601345669, 0.0496215306980656, 0.049201009251471826, 0.19428090832632464, 0.03784693019343986;
    ( 0, 1, 1, 7 ) 0.17539267015706805, 0.46335078534031415, 0.0549738219895288, 0.02356020942408377, 0.2670157068062827, 0.015706806282722512;
    ( 0, 1, 1, 8 ) 0.09523809523809523, 0.6190476190476191, 0.09523809523809523, 0.0, 0.19047619047619047, 0.0;
    ( 0, 1, 1, 9 ) 0.16666666666666666, 0.16666666666666666, 0.16666666666666666, 0.16666666666666666, 0.16666666666666666, 0.16666666666666666;
    ( 0, 1, 1, 10 ) 0.16666666666666666, 0.16666666666666666, 0.16666666666666666, 0.16666666666666666, 0.16666666666666666, 0.16666666666666666;
    ( 0, 2, 0, 1 ) 0.0, 0.038461538461538464, 0.11538461538461539, 0.5, 0.0, 0.34615384615384615;
    ( 0, 2, 0, 2 ) 0.0, 0.14285714285714285, 0.08163265306122448, 0.5306122448979592, 0.0, 0.24489795918367346;
    ( 0, 2, 0, 3 ) 0.060221870047543584, 0.2797147385103011, 0.06893819334389857, 0.32091917591125196, 0.021394611727416798, 0.24881141045958796;
    ( 0, 2, 0, 4 ) 0.08747442045142176, 0.40098042210073, 0.11178644512995937, 0.19249564765889862, 0.052334992822455025, 0.15492807183653523;
    ( 0, 2, 0, 5 ) 0.09024763582227255, 0.4921263970141117, 0.15653547489742997, 0.10356251703675746, 0.07141109783117709, 0.08611687739825125;
    ( 0, 2, 0, 6 ) 0.10688090217291647, 0.556706702117906, 0.1800105436875401, 0.04478775098560558, 0.07810351150637206, 0.03351058952965985;
    ( 0, 2, 0, 7 ) 0.13981113320079522, 0.5832504970178927, 0.17261431411530814, 0.01620278330019881, 0.07847912524850895, 0.009642147117296223;
    ( 0, 2, 0, 8 ) 0.14737550471063257, 0.5969044414535666, 0.17765814266487215, 0.004037685060565276, 0.0693135935397039, 0.004710632570659489;
    ( 0, 2, 0, 9 ) 0.11428571428571428, 0.6, 0.2571428571428571, 0.0, 0.02857142857142857, 0.0;
    ( 0, 2, 0, 10 ) 0.16666666666666666, 0.16666666666666666, 0.16666666666666666, 0.16666666666666666, 0.16666666666666666, 0.16666666666666666;
    ( 0, 2, 1, 1 ) 0.0, 0.0, 0.0, 0.3333333333333333, 0.0, 0.6666666666666666;
    ( 0, 2, 1, 2 ) 0.0, 0.1111111111111111, 0.0, 0.2222222222222222, 0.0, 0.6666666666666666;
    ( 0, 2, 1, 3 ) 0.10114942528735632, 0.31724137931034485, 0.01839080459770115, 0.23218390804597702, 0.07816091954022988, 0.25287356321839083;
    ( 0, 2, 1, 4 ) 0.07756330103157237, 0.4760081275398562, 0.04048140043763676, 0.11331666145670521, 0.146530165676774, 0.14610034385745546;
    ( 0, 2, 1, 5 ) 0.07918560396112774, 0.5188449174149208, 0.04275209695894764, 0.059749473450836935, 0.22120607471455492, 0.07826183349961202;
    ( 0, 2, 1, 6 ) 0.09737867516826071, 0.5283386468296138, 0.03808005667729366, 0.025681898689337585, 0.2780375487070492, 0.032483173928444915;
    ( 0, 2, 1, 7 ) 0.13881652400446595, 0.5176777074804615, 0.0323781168589505, 0.007815407517677708, 0.29289170078154075, 0.01042054335690361;
    ( 0, 2, 1, 8 ) 0.09868421052631579, 0.618421052631579, 0.04276315789473684, 0.0, 0.23355263157894737, 0.006578947368421052;
    ( 0, 2, 1, 9 ) 0.0, 0.6, 0.2, 0.0, 0.2, 0.0;
    ( 0, 2, 1, 10 ) 0.0, 1.0, 0.0, 0.0, 0.0, 0.0;
    ( 0, 3, 0, 1 ) 0.0, 0.15789473684210525, 0.0, 0.6842105263157895, 0.0, 0.15789473684210525;
    ( 0, 3, 0, 2 ) 0.0, 0.13793103448275862, 0.10344827586206896, 0.4482758620689655, 0.0, 0.3103448275862069;
    ( 0, 3, 0, 3 ) 0.06487695749440715, 0.24272930648769575, 0.09172259507829977, 0.3389261744966443, 0.03243847874720358, 0.22930648769574943;
    ( 0, 3, 0, 4 ) 0.07844251190840362, 0.40713630205829654, 0.12651313201940306, 0.19488266398636542, 0.053948345933662545, 0.1390770440938688;
    ( 0, 3, 0, 5 ) 0.07671622629725369, 0.5073211776339758, 0.17329678527437067, 0.09789039052063635, 0.07228361756388682, 0.07249180270987665;
    ( 0, 3, 0, 6 ) 0.08954783143648108, 0.5707659181790219, 0.1878068286681021, 0.04104583205167641, 0.08185788988003691, 0.028975699784681636;
    ( 0, 3, 0, 7 ) 0.11516206426118455, 0.5935456555487604, 0.1805522886578539, 0.014583431340264384, 0.08820623794514748, 0.007950322246789293;
    ( 0, 3, 0, 8 ) 0.14094350611531742, 0.5952242283051835, 0.1648223645894001, 0.0052417006406523005, 0.09260337798485731, 0.0011648223645894002;
    ( 0, 3, 0, 9 ) 0.15, 0.575, 0.15, 0.0, 0.125, 0.0;
    ( 0, 3, 0, 10 ) 0.16666666666666666, 0.16666666666666666, 0.16666666666666666, 0.16666666666666666, 0.16666666666666666, 0.16666666666666666;
    ( 0, 3, 1, 1 ) 0.0, 0.0, 0.0, 1.0, 0.0, 0.0;
    ( 0, 3, 1, 2 ) 0.0, 0.0, 0.0, 1.0, 0.0, 0.0;
    ( 0, 3, 1, 3 ) 0.07973421926910298, 0.44518272425249167, 0.05647840531561462, 0.15614617940199335, 0.08970099667774087, 0.17275747508305647;
    ( 0, 3, 1, 4 ) 0.07768924302788845, 0.48889291319570205, 0.045454545454545456, 0.10732826270674876, 0.14825546299649886, 0.13237957261861644;
    ( 0, 3, 1, 5 ) 0.0771872649786914, 0.5257458009526197, 0.042717473050889944, 0.05159187766357483, 0.23690147906743544, 0.06585610428678867;
    ( 0, 3, 1, 6 ) 0.08668084758242657, 0.524584799149145, 0.035179579481305734, 0.02069868281109384, 0.30487605334206, 0.02798003763396875;
    ( 0, 3, 1, 7 ) 0.1079794324890497, 0.5355170443725005, 0.03694534374404875, 0.00666539706722529, 0.30470386593029897, 0.008188916396876786;
    ( 0, 3, 1, 8 ) 0.14052287581699346, 0.5784313725490197, 0.049019607843137254, 0.0, 0.23202614379084968, 0.0;
    ( 0, 3, 1, 9 ) 0.0, 0.75, 0.08333333333333333, 0.0, 0.16666666666666666, 0.0;
    ( 0, 3, 1, 10 ) 0.16666666666666666, 0.16666666666666666, 0.16666666666666666, 0.16666666666666666, 0.16666666666666666, 0.16666666666666666;
    ( 0, 4, 0, 1 ) 0.0, 0.0, 0.0, 0.8333333333333334, 0.0, 0.16666666666666666;
    ( 0, 4, 0, 2 ) 0.0, 0.2, 0.1, 0.6, 0.0, 0.1;
    ( 0, 4, 0, 3 ) 0.10478359908883828, 0.28132118451025057, 0.11731207289293849, 0.3097949886104784, 0.029612756264236904, 0.1571753986332574;
    ( 0, 4, 0, 4 ) 0.11835378831579575, 0.4287390845980944, 0.15803711733932727, 0.17774948779663038, 0.03327830047938257, 0.0838422214707696;
    ( 0, 4, 0, 5 ) 0.11209423060820052, 0.5205571217238396, 0.2000725709660312, 0.0815725570100762, 0.044561364334161385, 0.041142155357691126;
    ( 0, 4, 0, 6 ) 0.11879907778430021, 0.5656653309852565, 0.21079094459049028, 0.034132189921985995, 0.054567264745667546, 0.016045191972299498;
    ( 0, 4, 0, 7 ) 0.14165119027519837, 0.5840227362260116, 0.1957060048398897, 0.012352974281051268, 0.06120209353368226, 0.005065000844166808;
    ( 0, 4, 0, 8 ) 0.12529079428381523, 0.6075108009305417, 0.192090395480226, 0.004652708541043536, 0.06879361914257229, 0.001661681621801263;
    ( 0, 4, 0, 9 ) 0.11764705882352941, 0.6078431372549019, 0.16666666666666666, 0.00980392156862745, 0.09803921568627451, 0.0;
    ( 0, 4, 0, 10 ) 0.16666666666666666, 0.6666666666666666, 0.16666666666666666, 0.0, 0.0, 0.0;
    ( 0, 4, 1, 1 ) 0.0, 0.0, 0.0, 0.0, 0.0, 1.0;
    ( 0, 4, 1, 2 ) 0.0, 1.0, 0.0, 0.0, 0.0, 0.0;
    ( 0, 4, 1, 3 ) 0.10232558139534884, 0.42790697674418604, 0.06046511627906977, 0.18604651162790697, 0.11162790697674418, 0.11162790697674418;
    ( 0, 4, 1, 4 ) 0.11688311688311688, 0.5221861471861472, 0.06462585034013606, 0.09299628942486085, 0.11402288188002474, 0.08928571428571429;
    ( 0, 4, 1, 5 ) 0.10396039603960396, 0.5527942055950561, 0.06116685494052761, 0.045351850621303744, 0.19044454781048575, 0.04628214499302279;
    ( 0, 4, 1, 6 ) 0.1206670697299476, 0.538391777509069, 0.05557234985892785, 0.018540910923014912, 0.24637243047158403, 0.02045546150745667;
    ( 0, 4, 1, 7 ) 0.15564045847576916, 0.527046048662779, 0.051276895234265034, 0.005228232455258395, 0.2543736175346873, 0.006434747637241102;
    ( 0, 4, 1, 8 ) 0.13313609467455623, 0.5355029585798816, 0.08875739644970414, 0.0, 0.23964497041420119, 0.0029585798816568047;
    ( 0, 4, 1, 9 ) 0.0, 0.5, 0.5, 0.0, 0.0, 0.0;
    ( 0, 4, 1, 10 ) 0.16666666666666666, 0.16666666666666666, 0.16666666666666666, 0.16666666666666666, 0.16666666666666666, 0.16666666666666666;
    ( 0, 5, 0, 1 ) 0.0, 0.16666666666666666, 0.0, 0.5833333333333334, 0.0, 0.25;
    ( 0, 5, 0, 2 ) 0.0, 0.0, 0.0, 0.9, 0.0, 0.1;
    ( 0, 5, 0, 3 ) 0.11578044596912522, 0.3481989708404803, 0.10806174957118353, 0.27615780445969124, 0.02144082332761578, 0.13036020583190394;
    ( 0, 5, 0, 4 ) 0.13926259174345, 0.459704979019769, 0.16107914810168564, 0.14048824097705873, 0.0336260472091246, 0.06583899294891206;
    ( 0, 5, 0, 5 ) 0.13095886219758562, 0.5403526611564299, 0.19538993849351866, 0.06003518512685993, 0.045772160555763025, 0.027491192469842926;
    ( 0, 5, 0, 6 ) 0.13393198148987007, 0.5828070736408288, 0.19572419551102702, 0.02239157273930383, 0.054886443372680685, 0.010258733246289536;
    ( 0, 5, 0, 7 ) 0.15887161773172137, 0.5890500863557858, 0.1768105929763961, 0.008474381116868164, 0.06358088658606793, 0.003212435233160622;
    ( 0, 5, 0, 8 ) 0.15764609222553147, 0.6033685940227996, 0.1601109171202629, 0.001540515559207148, 0.07682037588579645, 0.0005135051864023827;
    ( 0, 5, 0, 9 ) 0.1335149863760218, 0.5967302452316077, 0.17166212534059946, 0.0, 0.09809264305177112, 0.0;
    ( 0, 5, 0, 10 ) 0.16666666666666666, 0.6666666666666666, 0.08333333333333333, 0.0, 0.08333333333333333, 0.0;
    ( 0, 5, 1, 1 ) 0.0, 0.0, 0.0, 1.0, 0.0, 0.0;
    ( 0, 5, 1, 2 ) 0.0, 0.3333333333333333, 0.0, 0.5, 0.0, 0.16666666666666666;
    ( 0, 5, 1, 3 ) 0.16342412451361868, 0.4980544747081712, 0.019455252918287938, 0.11284046692607004, 0.08171206225680934, 0.1245136186770428;
    ( 0, 5, 1, 4 ) 0.13069926765887077, 0.5555752421450508, 0.0696905268131349, 0.07152137963619183, 0.11315851641861564, 0.05935506732813607;
    ( 0, 5, 1, 5 ) 0.12566937096366437, 0.5673507848590011, 0.06943071866884236, 0.03566914113672405, 0.17584059203419825, 0.02603939233756981;
    ( 0, 5, 1, 6 ) 0.13723133281817923, 0.5496694427749635, 0.05758278240462494, 0.015511862854526201, 0.2285280902092098, 0.011476488938496322;
    ( 0, 5, 1, 7 ) 0.16710042178946424, 0.5166472224715067, 0.0524095844925065, 0.005923000987166831, 0.2526249663465853, 0.005294803912770349;
    ( 0, 5, 1, 8 ) 0.17894736842105263, 0.5464114832535886, 0.06315789473684211, 0.0019138755980861245, 0.20861244019138755, 0.0009569377990430622;
    ( 0, 5, 1, 9 ) 0.15151515151515152, 0.6666666666666666, 0.12121212121212122, 0.0, 0.06060606060606061, 0.0;
    ( 0, 5, 1, 10 ) 1.0, 0.0, 0.0, 0.0, 0.0, 0.0;
    ( 0, 6, 0, 1 ) 0.0, 0.0, 0.0, 1.0, 0.0, 0.0;
    ( 0, 6, 0, 2 ) 0.0, 0.0, 0.0, 1.0, 0.0, 0.0;
    ( 0, 6, 0, 3 ) 0.09411764705882353, 0.21176470588235294, 0.11764705882352941, 0.43529411764705883, 0.023529411764705882, 0.11764705882352941;
    ( 0, 6, 0, 4 ) 0.16925988225399496, 0.4236753574432296, 0.1593776282590412, 0.15222876366694701, 0.023128679562657694, 0.07232968881412952;
    ( 0, 6, 0, 5 ) 0.17368134855899944, 0.5189233278955955, 0.19108210984230561, 0.056606851549755303, 0.034692767808591624, 0.025013594344752584;
    ( 0, 6, 0, 6 ) 0.18296199213630407, 0.5581039755351682, 0.18287461773700306, 0.021756225425950196, 0.046439493228484056, 0.007863695937090432;
    ( 0, 6, 0, 7 ) 0.1872903466269102, 0.565598210957883, 0.17582929556466642, 0.009224748415952293, 0.05870294446515095, 0.003354453969437197;
    ( 0, 6, 0, 8 ) 0.18189300411522633, 0.5711934156378601, 0.16872427983539096, 0.0024691358024691358, 0.0757201646090535, 0.0;
    ( 0, 6, 0, 9 ) 0.23076923076923078, 0.38461538461538464, 0.19230769230769232, 0.0, 0.19230769230769232, 0.0;
    ( 0, 6, 0, 10 ) 0.16666666666666666, 0.16666666666666666, 0.16666666666666666, 0.16666666666666666, 0.16666666666666666, 0.16666666666666666;
    ( 0, 6, 1, 1 ) 0.16666666666666666, 0.16666666666666666, 0.16666666666666666, 0.16666666666666666, 0.16666666666666666, 0.16666666666666666;
    ( 0, 6, 1, 2 ) 0.0, 0.0, 0.0, 0.0, 1.0, 0.0;
    ( 0, 6, 1, 3 ) 0.2, 0.2, 0.0, 0.4, 0.2, 0.0;
    ( 0, 6, 1, 4 ) 0.186264308012487, 0.5005202913631633, 0.06555671175858481, 0.09261186264308012, 0.08220603537981269, 0.07284079084287201;
    ( 0, 6, 1, 5 ) 0.188764829030007, 0.5516399162595953, 0.07152826238660154, 0.03349616189811584, 0.1297976273551989, 0.024773203070481507;
    ( 0, 6, 1, 6 ) 0.1943231441048035, 0.5287481804949054, 0.06622998544395925, 0.01710334788937409, 0.1819505094614265, 0.011644832605531296;
    ( 0, 6, 1, 7 ) 0.21266073194856577, 0.5044510385756676, 0.06033630069238378, 0.0019782393669634025, 0.2205736894164194, 0.0;
    ( 0, 6, 1, 8 ) 0.2653061224489796, 0.3877551020408163, 0.061224489795918366, 0.0, 0.2857142857142857, 0.0;
    ( 0, 6, 1, 9 ) 0.0, 0.875, 0.0, 0.0, 0.125, 0.0;
    ( 0, 6, 1, 10 ) 0.16666666666666666, 0.16666666666666666, 0.16666666666666666, 0.16666666666666666, 0.16666666666666666, 0.16666666666666666;
    ( 0, 7, 0, 1 ) 0.16666666666666666, 0.16666666666666666, 0.16666666666666666, 0.16666666666666666, 0.16666666666666666, 0.16666666666666666;
    ( 0, 7, 0, 2 ) 0.0, 0.0, 0.0, 1.0, 0.0, 0.0;
    ( 0, 7, 0, 3 ) 0.15789473684210525, 0.3092105263157895, 0.10526315789473684, 0.27631578947368424, 0.019736842105263157, 0.13157894736842105;
    ( 0, 7, 0, 4 ) 0.1667871340802313, 0.4741597397903867, 0.1563968196602819, 0.11890133718829057, 0.030448138778460428, 0.05330683050234911;
    ( 0, 7, 0, 5 ) 0.17273767709854373, 0.5463712064406646, 0.17909151900232842, 0.04173408579659813, 0.04037254824578713, 0.019692963416077982;
    ( 0, 7, 0, 6 ) 0.1702212266214228, 0.5784632106358443, 0.1754834775923545, 0.015017960579510358, 0.05416009437588643, 0.006654030194981642;
    ( 0, 7, 0, 7 ) 0.18905520760283415, 0.5783135443619568, 0.1605203975527773, 0.005440959543443039, 0.06471114550334921, 0.001958745435639494;
    ( 0, 7, 0, 8 ) 0.19097403728872625, 0.567694720334553, 0.15420805018295872, 0.0022652029970378113, 0.08346401812162398, 0.0013939710751001916;
    ( 0, 7, 0, 9 ) 0.19491525423728814, 0.6016949152542372, 0.09745762711864407, 0.0, 0.1059322033898305, 0.0;
    ( 0, 7, 0, 10 ) 0.0, 1.0, 0.0, 0.0, 0.0, 0.0;
    ( 0, 7, 1, 1 ) 0.16666666666666666, 0.16666666666666666, 0.16666666666666666, 0.16666666666666666, 0.16666666666666666, 0.16666666666666666;
    ( 0, 7, 1, 2 ) 0.16666666666666666, 0.16666666666666666, 0.16666666666666666, 0.16666666666666666, 0.16666666666666666, 0.16666666666666666;
    ( 0, 7, 1, 3 ) 0.16666666666666666, 0.35, 0.0, 0.13333333333333333, 0.11666666666666667, 0.23333333333333334;
    ( 0, 7, 1, 4 ) 0.16322226908477436, 0.5575706452973429, 0.060312104597216365, 0.05567271193589203, 0.11429776465626318, 0.04892450442851118;
    ( 0, 7, 1, 5 ) 0.1594847775175644, 0.5812646370023419, 0.059250585480093675, 0.02423887587822014, 0.15772833723653396, 0.018032786885245903;
    ( 0, 7, 1, 6 ) 0.172289156626506, 0.5508032128514057, 0.06204819277108434, 0.01104417670682731, 0.19759036144578312, 0.006224899598393574;
    ( 0, 7, 1, 7 ) 0.1862457722660654, 0.5273957158962796, 0.055467869222096955, 0.004735062006764375, 0.22232243517474634, 0.0038331454340473506;
    ( 0, 7, 1, 8 ) 0.15913555992141454, 0.5776031434184676, 0.05893909626719057, 0.009823182711198428, 0.1925343811394892, 0.0019646365422396855;
    ( 0, 7, 1, 9 ) 0.21052631578947367, 0.42105263157894735, 0.10526315789473684, 0.0, 0.2631578947368421, 0.0;
    ( 0, 7, 1, 10 ) 0.16666666666666666, 0.16666666666666666, 0.16666666666666666, 0.16666666666666666, 0.16666666666666666, 0.16666666666666666;
    ( 0, 8, 0, 1 ) 0.16666666666666666, 0.16666666666666666, 0.16666666666666666, 0.16666666666666666, 0.16666666666666666, 0.16666666666666666;
    ( 0, 8, 0, 2 ) 0.16666666666666666, 0.16666666666666666, 0.16666666666666666, 0.16666666666666666, 0.16666666666666666, 0.16666666666666666;
    ( 0, 8, 0, 3 ) 0.07142857142857142, 0.21428571428571427, 0.21428571428571427, 0.42857142857142855, 0.0, 0.07142857142857142;
    ( 0, 8, 0, 4 ) 0.1983168679107208, 0.4306622758873033, 0.1584339553604098, 0.12147822905232346, 0.024149286498353458, 0.06695938529088913;
    ( 0, 8, 0, 5 ) 0.20699835975943137, 0.5179879715691634, 0.1693821760524877, 0.04887916894477857, 0.03400765445598688, 0.022744669218151995;
    ( 0, 8, 0, 6 ) 0.19330233909632427, 0.5635624001162284, 0.1694028766526224, 0.01561818974284469, 0.05041406363504286, 0.007700130756937382;
    ( 0, 8, 0, 7 ) 0.21321890325456977, 0.5571778867588052, 0.15760142666072224, 0.006687472135532769, 0.06230494872938029, 0.0030093624609897457;
    ( 0, 8, 0, 8 ) 0.20793346129238643, 0.5521433141394754, 0.14843250159948818, 0.0019193857965451055, 0.08893154190658989, 0.0006397952655150352;
    ( 0, 8, 0, 9 ) 0.2839506172839506, 0.4691358024691358, 0.18518518518518517, 0.0, 0.06172839506172839, 0.0;
    ( 0, 8, 0, 10 ) 0.16666666666666666, 0.16666666666666666, 0.16666666666666666, 0.16666666666666666, 0.16666666666666666, 0.16666666666666666;
    ( 0, 8, 1, 1 ) 0.16666666666666666, 0.16666666666666666, 0.16666666666666666, 0.16666666666666666, 0.16666666666666666, 0.16666666666666666;
    ( 0, 8, 1, 2 ) 0.16666666666666666, 0.16666666666666666, 0.16666666666666666, 0.16666666666666666, 0.16666666666666666, 0.16666666666666666;
    ( 0, 8, 1, 3 ) 0.1, 0.4, 0.1, 0.2, 0.0, 0.2;
    ( 0, 8, 1, 4 ) 0.21112929623567922, 0.546644844517185, 0.0425531914893617, 0.05237315875613748, 0.09328968903436989, 0.054009819967266774;
    ( 0, 8, 1, 5 ) 0.19453125, 0.55390625, 0.05625, 0.03203125, 0.1421875, 0.02109375;
    ( 0, 8, 1, 6 ) 0.21299397186872068, 0.5351640991292699, 0.05023442732752847, 0.008707300736771601, 0.18352310783657066, 0.009377093101138647;
    ( 0, 8, 1, 7 ) 0.2369727047146402, 0.543424317617866, 0.05086848635235732, 0.0, 0.1600496277915633, 0.008684863523573201;
    ( 0, 8, 1, 8 ) 0.15178571428571427, 0.5446428571428571, 0.044642857142857144, 0.0, 0.25892857142857145, 0.0;
    ( 0, 8, 1, 9 ) 0.0, 0.5, 0.0, 0.0, 0.5, 0.0;
    ( 0, 8, 1, 10 ) 0.16666666666666666, 0.16666666666666666, 0.16666666666666666, 0.16666666666666666, 0.16666666666666666, 0.16666666666666666;
    ( 0, 9, 0, 1 ) 0.16666666666666666, 0.16666666666666666, 0.16666666666666666, 0.16666666666666666, 0.16666666666666666, 0.16666666666666666;
    ( 0, 9, 0, 2 ) 0.16666666666666666, 0.16666666666666666, 0.16666666666666666, 0.16666666666666666, 0.16666666666666666, 0.16666666666666666;
    ( 0, 9, 0, 3 ) 0.1518987341772152, 0.34177215189873417, 0.09282700421940929, 0.25738396624472576, 0.03375527426160337, 0.12236286919831224;
    ( 0, 9, 0, 4 ) 0.17425832952989503, 0.49201277955271566, 0.14303970789593792, 0.1057964399817435, 0.0343222272934733, 0.0505705157462346;
    ( 0, 9, 0, 5 ) 0.17656585965206223, 0.5609449610454889, 0.15891765100108904, 0.0329507693166904, 0.05288877719136578, 0.017731981793303733;
    ( 0, 9, 0, 6 ) 0.1744533188585608, 0.5903380893300249, 0.14985266749379653, 0.01240694789081886, 0.06616392679900744, 0.006785049627791563;
    ( 0, 9, 0, 7 ) 0.19297727943346119, 0.5832103865447035, 0.13393331366184716, 0.004839185600472116, 0.08332841546178814, 0.0017114192977279433;
    ( 0, 9, 0, 8 ) 0.1876078431372549, 0.5822745098039216, 0.11686274509803922, 0.00203921568627451, 0.11043137254901961, 0.000784313725490196;
    ( 0, 9, 0, 9 ) 0.14925373134328357, 0.591044776119403, 0.11044776119402985, 0.0, 0.14925373134328357, 0.0;
    ( 0, 9, 0, 10 ) 0.0, 0.6363636363636364, 0.09090909090909091, 0.0, 0.18181818181818182, 0.09090909090909091;
    ( 0, 9, 1, 1 ) 0.16666666666666666, 0.16666666666666666, 0.16666666666666666, 0.16666666666666666, 0.16666666666666666, 0.16666666666666666;
    ( 0, 9, 1, 2 ) 0.16666666666666666, 0.16666666666666666, 0.16666666666666666, 0.16666666666666666, 0.16666666666666666, 0.16666666666666666;
    ( 0, 9, 1, 3 ) 0.1, 0.4, 0.0625, 0.15, 0.075, 0.2125;
    ( 0, 9, 1, 4 ) 0.18855606758832566, 0.5595238095238095, 0.04646697388632873, 0.05913978494623656, 0.0944700460829493, 0.05184331797235023;
    ( 0, 9, 1, 5 ) 0.17165881100805838, 0.5674319598601186, 0.04530941158582941, 0.02584765090466778, 0.17758856621559982, 0.012163600425726015;
    ( 0, 9, 1, 6 ) 0.17643160127253446, 0.5454665959703076, 0.041489925768822905, 0.00835100742311771, 0.2213679745493107, 0.006892895015906681;
    ( 0, 9, 1, 7 ) 0.1949571094359241, 0.5149467117234209, 0.048349363140109174, 0.00363919937613725, 0.23576813101117755, 0.002339485313231089;
    ( 0, 9, 1, 8 ) 0.21025641025641026, 0.5076923076923077, 0.042735042735042736, 0.006837606837606838, 0.23076923076923078, 0.0017094017094017094;
    ( 0, 9, 1, 9 ) 0.14705882352941177, 0.6470588235294118, 0.0, 0.0, 0.20588235294117646, 0.0;
    ( 0, 9, 1, 10 ) 0.16666666666666666, 0.16666666666666666, 0.16666666666666666, 0.16666666666666666, 0.16666666666666666, 0.16666666666666666;
    ( 0, 10, 0, 1 ) 0.16666666666666666, 0.16666666666666666, 0.16666666666666666, 0.16666666666666666, 0.16666666666666666, 0.16666666666666666;
    ( 0, 10, 0, 2 ) 0.16666666666666666, 0.16666666666666666, 0.16666666666666666, 0.16666666666666666, 0.16666666666666666, 0.16666666666666666;
    ( 0, 10, 0, 3 ) 0.06666666666666667, 0.13333333333333333, 0.13333333333333333, 0.2, 0.0, 0.4666666666666667;
    ( 0, 10, 0, 4 ) 0.1762917933130699, 0.42958459979736574, 0.1286727456940223, 0.1661600810536981, 0.030395136778115502, 0.06889564336372847;
    ( 0, 10, 0, 5 ) 0.17421602787456447, 0.5682610072853975, 0.13145391194171682, 0.03737725688945201, 0.07031992397846057, 0.018371872030408617;
    ( 0, 10, 0, 6 ) 0.15773620798985416, 0.6090678503487634, 0.1176284083703234, 0.010145846544071021, 0.1012999365884591, 0.004121750158528852;
    ( 0, 10, 0, 7 ) 0.17446739832149774, 0.6000645577792124, 0.11007101355713364, 0.0033892834086507425, 0.11103938024531956, 0.0009683666881859264;
    ( 0, 10, 0, 8 ) 0.19109947643979058, 0.5706806282722513, 0.09790575916230367, 0.0005235602094240838, 0.1387434554973822, 0.0010471204188481676;
    ( 0, 10, 0, 9 ) 0.16296296296296298, 0.6222222222222222, 0.06666666666666667, 0.0, 0.14814814814814814, 0.0;
    ( 0, 10, 0, 10 ) 0.0, 1.0, 0.0, 0.0, 0.0, 0.0;
    ( 0, 10, 1, 1 ) 0.16666666666666666, 0.16666666666666666, 0.16666666666666666, 0.16666666666666666, 0.16666666666666666, 0.16666666666666666;
    ( 0, 10, 1, 2 ) 0.16666666666666666, 0.16666666666666666, 0.16666666666666666, 0.16666666666666666, 0.16666666666666666, 0.16666666666666666;
    ( 0, 10, 1, 3 ) 0.4, 0.2, 0.0, 0.4, 0.0, 0.0;
    ( 0, 10, 1, 4 ) 0.1565217391304348, 0.49130434782608695, 0.06521739130434782, 0.06086956521739131, 0.14782608695652175, 0.0782608695652174;
    ( 0, 10, 1, 5 ) 0.14057971014492754, 0.5463768115942029, 0.06231884057971015, 0.020289855072463767, 0.22608695652173913, 0.004347826086956522;
    ( 0, 10, 1, 6 ) 0.15285451197053407, 0.5589318600368324, 0.02578268876611418, 0.003683241252302026, 0.2541436464088398, 0.004604051565377533;
    ( 0, 10, 1, 7 ) 0.18556701030927836, 0.48582474226804123, 0.03865979381443299, 0.0, 0.28737113402061853, 0.002577319587628866;
    ( 0, 10, 1, 8 ) 0.13861386138613863, 0.5693069306930693, 0.054455445544554455, 0.0, 0.2376237623762376, 0.0;
    ( 0, 10, 1, 9 ) 0.0, 0.7777777777777778, 0.0, 0.0, 0.2222222222222222, 0.0;
    ( 0, 10, 1, 10 ) 0.0, 0.0, 0.0, 0.0, 1.0, 0.0;
    ( 1, 1, 0, 1 ) 0.0, 0.42857142857142855, 0.0, 0.2857142857142857, 0.0, 0.2857142857142857;
    ( 1, 1, 0, 2 ) 0.0, 0.0, 0.0, 0.2857142857142857, 0.0, 0.7142857142857143;
    ( 1, 1, 0, 3 ) 0.0, 0.1597222222222222, 0.0625, 0.2777777777777778, 0.041666666666666664, 0.4583333333333333;
    ( 1, 1, 0, 4 ) 0.0013531799729364006, 0.2158322056833559, 0.059201623815967525, 0.19993234100135318, 0.05953991880920163, 0.46414073071718537;
    ( 1, 1, 0, 5 ) 0.004887320119467825, 0.2937822427368993, 0.0703231061634537, 0.1696986152592995, 0.10833559598153679, 0.3529731197393429;
    ( 1, 1, 0, 6 ) 0.011222681630242174, 0.3479031305375074, 0.06556408741878322, 0.08800945067926758, 0.3095097460129947, 0.17779090372120496;
    ( 1, 1, 0, 7 ) 0.013100436681222707, 0.3165938864628821, 0.048034934497816595, 0.039301310043668124, 0.5262008733624454, 0.056768558951965066;
    ( 1, 1, 0, 8 ) 0.0, 0.379746835443038, 0.06329113924050633, 0.0, 0.5443037974683544, 0.012658227848101266;
    ( 1, 1, 0, 9 ) 0.0, 0.0, 0.0, 0.0, 1.0, 0.0;
    ( 1, 1, 0, 10 ) 0.0, 1.0, 0.0, 0.0, 0.0, 0.0;
    ( 1, 1, 1, 1 ) 0.16666666666666666, 0.16666666666666666, 0.16666666666666666, 0.16666666666666666, 0.16666666666666666, 0.16666666666666666;
    ( 1, 1, 1, 2 ) 0.0, 0.2, 0.0, 0.4, 0.0, 0.4;
    ( 1, 1, 1, 3 ) 0.0, 0.1875, 0.0, 0.375, 0.0625, 0.375;
    ( 1, 1, 1, 4 ) 0.0, 0.11787819253438114, 0.03732809430255403, 0.2770137524557957, 0.12966601178781925, 0.4381139489194499;
    ( 1, 1, 1, 5 ) 0.0, 0.12376237623762376, 0.05693069306930693, 0.22524752475247525, 0.16831683168316833, 0.42574257425742573;
    ( 1, 1, 1, 6 ) 0.0, 0.2, 0.05, 0.15, 0.24, 0.36;
    ( 1, 1, 1, 7 ) 0.0, 0.4, 0.08, 0.0, 0.44, 0.08;
    ( 1, 1, 1, 8 ) 0.0, 0.2, 0.0, 0.0, 0.8, 0.0;
    ( 1, 1, 1, 9 ) 0.0, 0.0, 0.5, 0.0, 0.5, 0.0;
    ( 1, 1, 1, 10 ) 0.16666666666666666, 0.16666666666666666, 0.16666666666666666, 0.16666666666666666, 0.16666666666666666, 0.16666666666666666;
    ( 1, 2, 0, 1 ) 0.0, 0.0, 0.0, 0.36363636363636365, 0.09090909090909091, 0.5454545454545454;
    ( 1, 2, 0, 2 ) 0.0, 0.09090909090909091, 0.0, 0.2727272727272727, 0.045454545454545456, 0.5909090909090909;
    ( 1, 2, 0, 3 ) 0.0, 0.10915492957746478, 0.017605633802816902, 0.22183098591549297, 0.05985915492957746, 0.5915492957746479;
    ( 1, 2, 0, 4 ) 0.001709077098366882, 0.22550322825674135, 0.06057728826433726, 0.17565514622104064, 0.09855677933915685, 0.43799848082035703;
    ( 1, 2, 0, 5 ) 0.004955456570155902, 0.27605790645879735, 0.06859688195991091, 0.14888641425389754, 0.18157015590200445, 0.31993318485523387;
    ( 1, 2, 0, 6 ) 0.010728936573051436, 0.31092878931313767, 0.06763437467129484, 0.07962553907646996, 0.3795098348585253, 0.15157252550752076;
    ( 1, 2, 0, 7 ) 0.016262975778546712, 0.3055363321799308, 0.04394463667820069, 0.023529411764705882, 0.5615916955017302, 0.04913494809688582;
    ( 1, 2, 0, 8 ) 0.023880597014925373, 0.24776119402985075, 0.029850746268656716, 0.0, 0.6955223880597015, 0.0029850746268656717;
    ( 1, 2, 0, 9 ) 0.0, 0.4444444444444444, 0.0, 0.0, 0.5555555555555556, 0.0;
    ( 1, 2, 0, 10 ) 0.16666666666666666, 0.16666666666666666, 0.16666666666666666, 0.16666666666666666, 0.16666666666666666, 0.16666666666666666;
    ( 1, 2, 1, 1 ) 0.0, 0.4, 0.0, 0.2, 0.0, 0.4;
    ( 1, 2, 1, 2 ) 0.0, 0.0, 0.0, 0.4, 0.6, 0.0;
    ( 1, 2, 1, 3 ) 0.0, 0.15384615384615385, 0.019230769230769232, 0.25, 0.25, 0.3269230769230769;
    ( 1, 2, 1, 4 ) 0.0018957345971563982, 0.11090047393364928, 0.025592417061611375, 0.15213270142180094, 0.3014218009478673, 0.4080568720379147;
    ( 1, 2, 1, 5 ) 0.0006906077348066298, 0.13052486187845305, 0.0393646408839779, 0.12845303867403315, 0.318024861878453, 0.38294198895027626;
    ( 1, 2, 1, 6 ) 0.008648648648648649, 0.2118918918918919, 0.06594594594594595, 0.09945945945945946, 0.3178378378378378, 0.29621621621621624;
    ( 1, 2, 1, 7 ) 0.024271844660194174, 0.3446601941747573, 0.0825242718446602, 0.024271844660194174, 0.4320388349514563, 0.09223300970873786;
    ( 1, 2, 1, 8 ) 0.0, 0.29411764705882354, 0.23529411764705882, 0.0, 0.47058823529411764, 0.0;
    ( 1, 2, 1, 9 ) 0.0, 0.0, 1.0, 0.0, 0.0, 0.0;
    ( 1, 2, 1, 10 ) 0.16666666666666666, 0.16666666666666666, 0.16666666666666666, 0.16666666666666666, 0.16666666666666666, 0.16666666666666666;
    ( 1, 3, 0, 1 ) 0.0, 0.058823529411764705, 0.0, 0.4117647058823529, 0.0, 0.5294117647058824;
    ( 1, 3, 0, 2 ) 0.0, 0.1, 0.0, 0.45, 0.05, 0.4;
    ( 1, 3, 0, 3 ) 0.008064516129032258, 0.20161290322580644, 0.08064516129032258, 0.21370967741935484, 0.020161290322580645, 0.47580645161290325;
    ( 1, 3, 0, 4 ) 0.003060778312199388, 0.23611718408395277, 0.07170966331438566, 0.18320944468736336, 0.08974639265413205, 0.4161565369479668;
    ( 1, 3, 0, 5 ) 0.0042381860563678745, 0.30456664547573636, 0.06982411527866074, 0.13980716253443526, 0.18838737020555202, 0.29317652044924775;
    ( 1, 3, 0, 6 ) 0.008279516476237788, 0.3234807087266104, 0.06118562675939725, 0.07377049180327869, 0.39335982778605727, 0.1399238284484186;
    ( 1, 3, 0, 7 ) 0.023529411764705882, 0.281351689612015, 0.04380475594493116, 0.025031289111389236, 0.5877346683354193, 0.038548185231539425;
    ( 1, 3, 0, 8 ) 0.007736943907156673, 0.29593810444874274, 0.03481624758220503, 0.005802707930367505, 0.6441005802707931, 0.01160541586073501;
    ( 1, 3, 0, 9 ) 0.0, 0.21951219512195122, 0.0, 0.0, 0.7804878048780488, 0.0;
    ( 1, 3, 0, 10 ) 0.16666666666666666, 0.16666666666666666, 0.16666666666666666, 0.16666666666666666, 0.16666666666666666, 0.16666666666666666;
    ( 1, 3, 1, 1 ) 0.0, 0.0, 0.0, 1.0, 0.0, 0.0;
    ( 1, 3, 1, 2 ) 0.0, 0.0, 0.16666666666666666, 0.6666666666666666, 0.16666666666666666, 0.0;
    ( 1, 3, 1, 3 ) 0.0, 0.1935483870967742, 0.06451612903225806, 0.2903225806451613, 0.16129032258064516, 0.2903225806451613;
    ( 1, 3, 1, 4 ) 0.0, 0.09364548494983277, 0.033444816053511704, 0.16722408026755853, 0.2602006688963211, 0.4454849498327759;
    ( 1, 3, 1, 5 ) 0.002688172043010753, 0.1442652329749104, 0.04390681003584229, 0.1460573476702509, 0.2862903225806452, 0.3767921146953405;
    ( 1, 3, 1, 6 ) 0.003293084522502744, 0.2557628979143798, 0.06695938529088913, 0.07244785949506037, 0.35016465422612514, 0.2513721185510428;
    ( 1, 3, 1, 7 ) 0.0, 0.3274021352313167, 0.08540925266903915, 0.028469750889679714, 0.4626334519572954, 0.09608540925266904;
    ( 1, 3, 1, 8 ) 0.058823529411764705, 0.3235294117647059, 0.14705882352941177, 0.0, 0.47058823529411764, 0.0;
    ( 1, 3, 1, 9 ) 0.0, 0.5, 0.16666666666666666, 0.0, 0.3333333333333333, 0.0;
    ( 1, 3, 1, 10 ) 0.16666666666666666, 0.16666666666666666, 0.16666666666666666, 0.16666666666666666, 0.16666666666666666, 0.16666666666666666;
    ( 1, 4, 0, 1 ) 0.0, 0.16666666666666666, 0.0, 0.16666666666666666, 0.0, 0.6666666666666666;
    ( 1, 4, 0, 2 ) 0.0, 0.36363636363636365, 0.0, 0.45454545454545453, 0.0, 0.18181818181818182;
    ( 1, 4, 0, 3 ) 0.0, 0.31950207468879666, 0.04149377593360996, 0.22821576763485477, 0.04979253112033195, 0.36099585062240663;
    ( 1, 4, 0, 4 ) 0.004650279965834678, 0.3181171111322008, 0.08987377811521306, 0.17661573502894562, 0.10781057226914681, 0.302932523488659;
    ( 1, 4, 0, 5 ) 0.008060263653483992, 0.352316384180791, 0.0792090395480226, 0.11175141242937853, 0.25065913370998116, 0.19800376647834275;
    ( 1, 4, 0, 6 ) 0.014064036250160304, 0.3415979139058693, 0.06078741503868679, 0.05129739665711965, 0.4503911426495105, 0.08186209549865345;
    ( 1, 4, 0, 7 ) 0.01760917689675991, 0.2858724089353995, 0.04326826323203864, 0.014892332461259811, 0.6167236868585229, 0.02163413161601932;
    ( 1, 4, 0, 8 ) 0.016850291639662993, 0.28839922229423204, 0.03240440699935191, 0.002592352559948153, 0.6552171095268956, 0.004536616979909268;
    ( 1, 4, 0, 9 ) 0.0, 0.35294117647058826, 0.014705882352941176, 0.0, 0.6323529411764706, 0.0;
    ( 1, 4, 0, 10 ) 0.0, 0.25, 0.0, 0.0, 0.75, 0.0;
    ( 1, 4, 1, 1 ) 0.16666666666666666, 0.16666666666666666, 0.16666666666666666, 0.16666666666666666, 0.16666666666666666, 0.16666666666666666;
    ( 1, 4, 1, 2 ) 0.0, 0.0, 0.0, 0.0, 1.0, 0.0;
    ( 1, 4, 1, 3 ) 0.0, 0.0, 0.0, 0.35294117647058826, 0.23529411764705882, 0.4117647058823529;
    ( 1, 4, 1, 4 ) 0.0010351966873706005, 0.16459627329192547, 0.06418219461697723, 0.2028985507246377, 0.16666666666666666, 0.40062111801242234;
    ( 1, 4, 1, 5 ) 0.0027292576419213972, 0.24890829694323144, 0.0584061135371179, 0.16593886462882096, 0.24563318777292575, 0.27838427947598254;
    ( 1, 4, 1, 6 ) 0.009931245225362872, 0.35141329258976317, 0.06340718105423988, 0.07792207792207792, 0.33537051184110006, 0.16195569136745608;
    ( 1, 4, 1, 7 ) 0.021032504780114723, 0.40152963671128106, 0.10707456978967496, 0.021032504780114723, 0.42065009560229444, 0.028680688336520075;
    ( 1, 4, 1, 8 ) 0.05172413793103448, 0.20689655172413793, 0.14655172413793102, 0.0, 0.5775862068965517, 0.017241379310344827;
    ( 1, 4, 1, 9 ) 0.2, 0.0, 0.4, 0.0, 0.4, 0.0;
    ( 1, 4, 1, 10 ) 0.16666666666666666, 0.16666666666666666, 0.16666666666666666, 0.16666666666666666, 0.16666666666666666, 0.16666666666666666;
    ( 1, 5, 0, 1 ) 0.0, 0.2, 0.0, 0.2, 0.0, 0.6;
    ( 1, 5, 0, 2 ) 0.0, 0.3181818181818182, 0.09090909090909091, 0.18181818181818182, 0.0, 0.4090909090909091;
    ( 1, 5, 0, 3 ) 0.0, 0.28735632183908044, 0.09195402298850575, 0.23563218390804597, 0.020114942528735632, 0.3649425287356322;
    ( 1, 5, 0, 4 ) 0.006945602044785242, 0.372284269600489, 0.09068178029671611, 0.14896927265655388, 0.1297994110129466, 0.2513196643885092;
    ( 1, 5, 0, 5 ) 0.010050521337203053, 0.38806478196997385, 0.08165824644379949, 0.08923644702425741, 0.2949048693969687, 0.1360851338277975;
    ( 1, 5, 0, 6 ) 0.014370945230901367, 0.35395162650879586, 0.055367248968574104, 0.03645649606601126, 0.49086670449839725, 0.048986978727320135;
    ( 1, 5, 0, 7 ) 0.017592217267936767, 0.3018240778273206, 0.03442778002972571, 0.010836373463045534, 0.6230239156870693, 0.01229563572490204;
    ( 1, 5, 0, 8 ) 0.012974330357142858, 0.27845982142857145, 0.03138950892857143, 0.0033482142857142855, 0.6707589285714286, 0.0030691964285714285;
    ( 1, 5, 0, 9 ) 0.004694835680751174, 0.2746478873239437, 0.018779342723004695, 0.002347417840375587, 0.6995305164319249, 0.0;
    ( 1, 5, 0, 10 ) 0.0, 0.25, 0.0, 0.0, 0.75, 0.0;
    ( 1, 5, 1, 1 ) 0.0, 0.0, 0.0, 0.0, 0.0, 1.0;
    ( 1, 5, 1, 2 ) 0.0, 0.0, 0.0, 1.0, 0.0, 0.0;
    ( 1, 5, 1, 3 ) 0.0, 0.18518518518518517, 0.07407407407407407, 0.37037037037037035, 0.1111111111111111, 0.25925925925925924;
    ( 1, 5, 1, 4 ) 0.0028188865398167725, 0.21987315010570824, 0.07258632840028188, 0.21916842847075405, 0.15081042988019733, 0.3347427766032417;
    ( 1, 5, 1, 5 ) 0.003252513305736251, 0.3113542282672975, 0.06623299822590184, 0.13867534003548196, 0.25340035481963336, 0.22708456534594915;
    ( 1, 5, 1, 6 ) 0.014573396926338102, 0.3887122416534181, 0.06571277159512454, 0.04054054054054054, 0.40381558028616854, 0.08664546899841018;
    ( 1, 5, 1, 7 ) 0.01693404634581105, 0.37566844919786097, 0.06283422459893048, 0.007575757575757576, 0.518270944741533, 0.01871657754010695;
    ( 1, 5, 1, 8 ) 0.02857142857142857, 0.3314285714285714, 0.08761904761904762, 0.0, 0.5504761904761905, 0.0019047619047619048;
    ( 1, 5, 1, 9 ) 0.0, 0.20930232558139536, 0.09302325581395349, 0.0, 0.6976744186046512, 0.0;
    ( 1, 5, 1, 10 ) 0.0, 0.0, 1.0, 0.0, 0.0, 0.0;
